elements: [Cl, Na] 
E0: [0.000000, 0.000000] 
deltaSplineBins: 0.001000 
embeddings:
  0: {ndensity: 1, FS_parameters: [1.0, 1.0], npoti: FinnisSinclair, rho_core_cutoff: 100000, drho_core_cutoff: 250}
  1: {ndensity: 1, FS_parameters: [1.0, 1.0], npoti: FinnisSinclair, rho_core_cutoff: 100000, drho_core_cutoff: 250}
bonds:
  [0, 0]: {nradmax: 8, lmax: 2, nradbasemax: 8, radbasename: ChebExpCos, radparameters: [0.003], radcoefficients: [[[1, 0, 0, 0, 0, 0, 0, 0], [1, 0, 0, 0, 0, 0, 0, 0], [1, 0, 0, 0, 0, 0, 0, 0]], [[0, 1, 0, 0, 0, 0, 0, 0], [0, 1, 0, 0, 0, 0, 0, 0], [0, 1, 0, 0, 0, 0, 0, 0]], [[0, 0, 1, 0, 0, 0, 0, 0], [0, 0, 1, 0, 0, 0, 0, 0], [0, 0, 1, 0, 0, 0, 0, 0]], [[0, 0, 0, 1, 0, 0, 0, 0], [0, 0, 0, 1, 0, 0, 0, 0], [0, 0, 0, 1, 0, 0, 0, 0]], [[0, 0, 0, 0, 1, 0, 0, 0], [0, 0, 0, 0, 1, 0, 0, 0], [0, 0, 0, 0, 1, 0, 0, 0]], [[0, 0, 0, 0, 0, 1, 0, 0], [0, 0, 0, 0, 0, 1, 0, 0], [0, 0, 0, 0, 0, 1, 0, 0]], [[0, 0, 0, 0, 0, 0, 1, 0], [0, 0, 0, 0, 0, 0, 1, 0], [0, 0, 0, 0, 0, 0, 1, 0]], [[0, 0, 0, 0, 0, 0, 0, 1], [0, 0, 0, 0, 0, 0, 0, 1], [0, 0, 0, 0, 0, 0, 0, 1]]], prehc: 0, lambdahc: 0.003, rcut: 3.5, dcut: 0.01, rcut_in: 0.0, dcut_in: 0.0, inner_cutoff_type: distance}
  [0, 1]: {nradmax: 8, lmax: 2, nradbasemax: 8, radbasename: ChebExpCos, radparameters: [0.005], radcoefficients: [[[1, 0, 0, 0, 0, 0, 0, 0], [1, 0, 0, 0, 0, 0, 0, 0], [1, 0, 0, 0, 0, 0, 0, 0]], [[0, 1, 0, 0, 0, 0, 0, 0], [0, 1, 0, 0, 0, 0, 0, 0], [0, 1, 0, 0, 0, 0, 0, 0]], [[0, 0, 1, 0, 0, 0, 0, 0], [0, 0, 1, 0, 0, 0, 0, 0], [0, 0, 1, 0, 0, 0, 0, 0]], [[0, 0, 0, 1, 0, 0, 0, 0], [0, 0, 0, 1, 0, 0, 0, 0], [0, 0, 0, 1, 0, 0, 0, 0]], [[0, 0, 0, 0, 1, 0, 0, 0], [0, 0, 0, 0, 1, 0, 0, 0], [0, 0, 0, 0, 1, 0, 0, 0]], [[0, 0, 0, 0, 0, 1, 0, 0], [0, 0, 0, 0, 0, 1, 0, 0], [0, 0, 0, 0, 0, 1, 0, 0]], [[0, 0, 0, 0, 0, 0, 1, 0], [0, 0, 0, 0, 0, 0, 1, 0], [0, 0, 0, 0, 0, 0, 1, 0]], [[0, 0, 0, 0, 0, 0, 0, 1], [0, 0, 0, 0, 0, 0, 0, 1], [0, 0, 0, 0, 0, 0, 0, 1]]], prehc: 0, lambdahc: 0.005, rcut: 4.0, dcut: 0.01, rcut_in: 0.0, dcut_in: 0.0, inner_cutoff_type: distance}
  [1, 0]: {nradmax: 8, lmax: 2, nradbasemax: 8, radbasename: ChebExpCos, radparameters: [0.005], radcoefficients: [[[1, 0, 0, 0, 0, 0, 0, 0], [1, 0, 0, 0, 0, 0, 0, 0], [1, 0, 0, 0, 0, 0, 0, 0]], [[0, 1, 0, 0, 0, 0, 0, 0], [0, 1, 0, 0, 0, 0, 0, 0], [0, 1, 0, 0, 0, 0, 0, 0]], [[0, 0, 1, 0, 0, 0, 0, 0], [0, 0, 1, 0, 0, 0, 0, 0], [0, 0, 1, 0, 0, 0, 0, 0]], [[0, 0, 0, 1, 0, 0, 0, 0], [0, 0, 0, 1, 0, 0, 0, 0], [0, 0, 0, 1, 0, 0, 0, 0]], [[0, 0, 0, 0, 1, 0, 0, 0], [0, 0, 0, 0, 1, 0, 0, 0], [0, 0, 0, 0, 1, 0, 0, 0]], [[0, 0, 0, 0, 0, 1, 0, 0], [0, 0, 0, 0, 0, 1, 0, 0], [0, 0, 0, 0, 0, 1, 0, 0]], [[0, 0, 0, 0, 0, 0, 1, 0], [0, 0, 0, 0, 0, 0, 1, 0], [0, 0, 0, 0, 0, 0, 1, 0]], [[0, 0, 0, 0, 0, 0, 0, 1], [0, 0, 0, 0, 0, 0, 0, 1], [0, 0, 0, 0, 0, 0, 0, 1]]], prehc: 0, lambdahc: 0.005, rcut: 4.0, dcut: 0.01, rcut_in: 0.0, dcut_in: 0.0, inner_cutoff_type: distance}
  [1, 1]: {nradmax: 8, lmax: 2, nradbasemax: 8, radbasename: ChebExpCos, radparameters: [0.008], radcoefficients: [[[1, 0, 0, 0, 0, 0, 0, 0], [1, 0, 0, 0, 0, 0, 0, 0], [1, 0, 0, 0, 0, 0, 0, 0]], [[0, 1, 0, 0, 0, 0, 0, 0], [0, 1, 0, 0, 0, 0, 0, 0], [0, 1, 0, 0, 0, 0, 0, 0]], [[0, 0, 1, 0, 0, 0, 0, 0], [0, 0, 1, 0, 0, 0, 0, 0], [0, 0, 1, 0, 0, 0, 0, 0]], [[0, 0, 0, 1, 0, 0, 0, 0], [0, 0, 0, 1, 0, 0, 0, 0], [0, 0, 0, 1, 0, 0, 0, 0]], [[0, 0, 0, 0, 1, 0, 0, 0], [0, 0, 0, 0, 1, 0, 0, 0], [0, 0, 0, 0, 1, 0, 0, 0]], [[0, 0, 0, 0, 0, 1, 0, 0], [0, 0, 0, 0, 0, 1, 0, 0], [0, 0, 0, 0, 0, 1, 0, 0]], [[0, 0, 0, 0, 0, 0, 1, 0], [0, 0, 0, 0, 0, 0, 1, 0], [0, 0, 0, 0, 0, 0, 1, 0]], [[0, 0, 0, 0, 0, 0, 0, 1], [0, 0, 0, 0, 0, 0, 0, 1], [0, 0, 0, 0, 0, 0, 0, 1]]], prehc: 0, lambdahc: 0.008, rcut: 4.5, dcut: 0.01, rcut_in: 0.0, dcut_in: 0.0, inner_cutoff_type: distance}
functions:
  0:
    - {mu0: 0, rank: 1, ndensity: 1, num_ms_combs: 1, mus: [0], ns: [1], ls: [0], ms_combs: [0], ctildes: [1.0]}
    - {mu0: 0, rank: 1, ndensity: 1, num_ms_combs: 1, mus: [1], ns: [1], ls: [0], ms_combs: [0], ctildes: [1.0]}
    - {mu0: 0, rank: 1, ndensity: 1, num_ms_combs: 1, mus: [0], ns: [2], ls: [0], ms_combs: [0], ctildes: [1.0]}
    - {mu0: 0, rank: 1, ndensity: 1, num_ms_combs: 1, mus: [1], ns: [2], ls: [0], ms_combs: [0], ctildes: [1.0]}
    - {mu0: 0, rank: 1, ndensity: 1, num_ms_combs: 1, mus: [0], ns: [3], ls: [0], ms_combs: [0], ctildes: [1.0]}
    - {mu0: 0, rank: 1, ndensity: 1, num_ms_combs: 1, mus: [1], ns: [3], ls: [0], ms_combs: [0], ctildes: [1.0]}
    - {mu0: 0, rank: 1, ndensity: 1, num_ms_combs: 1, mus: [0], ns: [4], ls: [0], ms_combs: [0], ctildes: [1.0]}
    - {mu0: 0, rank: 1, ndensity: 1, num_ms_combs: 1, mus: [1], ns: [4], ls: [0], ms_combs: [0], ctildes: [1.0]}
    - {mu0: 0, rank: 1, ndensity: 1, num_ms_combs: 1, mus: [0], ns: [5], ls: [0], ms_combs: [0], ctildes: [1.0]}
    - {mu0: 0, rank: 1, ndensity: 1, num_ms_combs: 1, mus: [1], ns: [5], ls: [0], ms_combs: [0], ctildes: [1.0]}
    - {mu0: 0, rank: 1, ndensity: 1, num_ms_combs: 1, mus: [0], ns: [6], ls: [0], ms_combs: [0], ctildes: [1.0]}
    - {mu0: 0, rank: 1, ndensity: 1, num_ms_combs: 1, mus: [1], ns: [6], ls: [0], ms_combs: [0], ctildes: [1.0]}
    - {mu0: 0, rank: 1, ndensity: 1, num_ms_combs: 1, mus: [0], ns: [7], ls: [0], ms_combs: [0], ctildes: [1.0]}
    - {mu0: 0, rank: 1, ndensity: 1, num_ms_combs: 1, mus: [1], ns: [7], ls: [0], ms_combs: [0], ctildes: [1.0]}
    - {mu0: 0, rank: 1, ndensity: 1, num_ms_combs: 1, mus: [0], ns: [8], ls: [0], ms_combs: [0], ctildes: [1.0]}
    - {mu0: 0, rank: 1, ndensity: 1, num_ms_combs: 1, mus: [1], ns: [8], ls: [0], ms_combs: [0], ctildes: [1.0]}
    - {mu0: 0, rank: 2, ndensity: 1, num_ms_combs: 1, mus: [0, 0], ns: [1, 1], ls: [0, 0], ms_combs: [0, 0], ctildes: [1.0]}
    - {mu0: 0, rank: 2, ndensity: 1, num_ms_combs: 1, mus: [0, 1], ns: [1, 1], ls: [0, 0], ms_combs: [0, 0], ctildes: [1.0]}
    - {mu0: 0, rank: 2, ndensity: 1, num_ms_combs: 1, mus: [1, 1], ns: [1, 1], ls: [0, 0], ms_combs: [0, 0], ctildes: [1.0]}
    - {mu0: 0, rank: 2, ndensity: 1, num_ms_combs: 1, mus: [0, 0], ns: [1, 2], ls: [0, 0], ms_combs: [0, 0], ctildes: [1.0]}
    - {mu0: 0, rank: 2, ndensity: 1, num_ms_combs: 1, mus: [0, 1], ns: [1, 2], ls: [0, 0], ms_combs: [0, 0], ctildes: [1.0]}
    - {mu0: 0, rank: 2, ndensity: 1, num_ms_combs: 1, mus: [1, 1], ns: [1, 2], ls: [0, 0], ms_combs: [0, 0], ctildes: [1.0]}
    - {mu0: 0, rank: 2, ndensity: 1, num_ms_combs: 1, mus: [0, 1], ns: [2, 1], ls: [0, 0], ms_combs: [0, 0], ctildes: [1.0]}
    - {mu0: 0, rank: 2, ndensity: 1, num_ms_combs: 1, mus: [0, 0], ns: [2, 2], ls: [0, 0], ms_combs: [0, 0], ctildes: [1.0]}
    - {mu0: 0, rank: 2, ndensity: 1, num_ms_combs: 1, mus: [0, 1], ns: [2, 2], ls: [0, 0], ms_combs: [0, 0], ctildes: [1.0]}
    - {mu0: 0, rank: 2, ndensity: 1, num_ms_combs: 1, mus: [1, 1], ns: [2, 2], ls: [0, 0], ms_combs: [0, 0], ctildes: [1.0]}
    - {mu0: 0, rank: 2, ndensity: 1, num_ms_combs: 3, mus: [0, 0], ns: [1, 1], ls: [1, 1], ms_combs: [-1, 1, 0, 0, 1, -1], ctildes: [0.5773502691896257, -0.5773502691896257, 0.5773502691896257]}
    - {mu0: 0, rank: 2, ndensity: 1, num_ms_combs: 3, mus: [0, 1], ns: [1, 1], ls: [1, 1], ms_combs: [-1, 1, 0, 0, 1, -1], ctildes: [0.5773502691896257, -0.5773502691896257, 0.5773502691896257]}
    - {mu0: 0, rank: 2, ndensity: 1, num_ms_combs: 3, mus: [1, 1], ns: [1, 1], ls: [1, 1], ms_combs: [-1, 1, 0, 0, 1, -1], ctildes: [0.5773502691896257, -0.5773502691896257, 0.5773502691896257]}
    - {mu0: 0, rank: 2, ndensity: 1, num_ms_combs: 3, mus: [0, 0], ns: [1, 2], ls: [1, 1], ms_combs: [-1, 1, 0, 0, 1, -1], ctildes: [0.5773502691896257, -0.5773502691896257, 0.5773502691896257]}
    - {mu0: 0, rank: 2, ndensity: 1, num_ms_combs: 3, mus: [0, 1], ns: [1, 2], ls: [1, 1], ms_combs: [-1, 1, 0, 0, 1, -1], ctildes: [0.5773502691896257, -0.5773502691896257, 0.5773502691896257]}
    - {mu0: 0, rank: 2, ndensity: 1, num_ms_combs: 3, mus: [1, 1], ns: [1, 2], ls: [1, 1], ms_combs: [-1, 1, 0, 0, 1, -1], ctildes: [0.5773502691896257, -0.5773502691896257, 0.5773502691896257]}
    - {mu0: 0, rank: 2, ndensity: 1, num_ms_combs: 3, mus: [0, 1], ns: [2, 1], ls: [1, 1], ms_combs: [-1, 1, 0, 0, 1, -1], ctildes: [0.5773502691896257, -0.5773502691896257, 0.5773502691896257]}
    - {mu0: 0, rank: 2, ndensity: 1, num_ms_combs: 3, mus: [0, 0], ns: [2, 2], ls: [1, 1], ms_combs: [-1, 1, 0, 0, 1, -1], ctildes: [0.5773502691896257, -0.5773502691896257, 0.5773502691896257]}
    - {mu0: 0, rank: 2, ndensity: 1, num_ms_combs: 3, mus: [0, 1], ns: [2, 2], ls: [1, 1], ms_combs: [-1, 1, 0, 0, 1, -1], ctildes: [0.5773502691896257, -0.5773502691896257, 0.5773502691896257]}
    - {mu0: 0, rank: 2, ndensity: 1, num_ms_combs: 3, mus: [1, 1], ns: [2, 2], ls: [1, 1], ms_combs: [-1, 1, 0, 0, 1, -1], ctildes: [0.5773502691896257, -0.5773502691896257, 0.5773502691896257]}
    - {mu0: 0, rank: 2, ndensity: 1, num_ms_combs: 5, mus: [0, 0], ns: [1, 1], ls: [2, 2], ms_combs: [-2, 2, -1, 1, 0, 0, 1, -1, 2, -2], ctildes: [0.4472135954999579, -0.4472135954999579, 0.447213595499958, -0.4472135954999579, 0.4472135954999579]}
    - {mu0: 0, rank: 2, ndensity: 1, num_ms_combs: 5, mus: [0, 1], ns: [1, 1], ls: [2, 2], ms_combs: [-2, 2, -1, 1, 0, 0, 1, -1, 2, -2], ctildes: [0.4472135954999579, -0.4472135954999579, 0.447213595499958, -0.4472135954999579, 0.4472135954999579]}
    - {mu0: 0, rank: 2, ndensity: 1, num_ms_combs: 5, mus: [1, 1], ns: [1, 1], ls: [2, 2], ms_combs: [-2, 2, -1, 1, 0, 0, 1, -1, 2, -2], ctildes: [0.4472135954999579, -0.4472135954999579, 0.447213595499958, -0.4472135954999579, 0.4472135954999579]}
    - {mu0: 0, rank: 2, ndensity: 1, num_ms_combs: 5, mus: [0, 0], ns: [1, 2], ls: [2, 2], ms_combs: [-2, 2, -1, 1, 0, 0, 1, -1, 2, -2], ctildes: [0.4472135954999579, -0.4472135954999579, 0.447213595499958, -0.4472135954999579, 0.4472135954999579]}
    - {mu0: 0, rank: 2, ndensity: 1, num_ms_combs: 5, mus: [0, 1], ns: [1, 2], ls: [2, 2], ms_combs: [-2, 2, -1, 1, 0, 0, 1, -1, 2, -2], ctildes: [0.4472135954999579, -0.4472135954999579, 0.447213595499958, -0.4472135954999579, 0.4472135954999579]}
    - {mu0: 0, rank: 2, ndensity: 1, num_ms_combs: 5, mus: [1, 1], ns: [1, 2], ls: [2, 2], ms_combs: [-2, 2, -1, 1, 0, 0, 1, -1, 2, -2], ctildes: [0.4472135954999579, -0.4472135954999579, 0.447213595499958, -0.4472135954999579, 0.4472135954999579]}
    - {mu0: 0, rank: 2, ndensity: 1, num_ms_combs: 5, mus: [0, 1], ns: [2, 1], ls: [2, 2], ms_combs: [-2, 2, -1, 1, 0, 0, 1, -1, 2, -2], ctildes: [0.4472135954999579, -0.4472135954999579, 0.447213595499958, -0.4472135954999579, 0.4472135954999579]}
    - {mu0: 0, rank: 2, ndensity: 1, num_ms_combs: 5, mus: [0, 0], ns: [2, 2], ls: [2, 2], ms_combs: [-2, 2, -1, 1, 0, 0, 1, -1, 2, -2], ctildes: [0.4472135954999579, -0.4472135954999579, 0.447213595499958, -0.4472135954999579, 0.4472135954999579]}
    - {mu0: 0, rank: 2, ndensity: 1, num_ms_combs: 5, mus: [0, 1], ns: [2, 2], ls: [2, 2], ms_combs: [-2, 2, -1, 1, 0, 0, 1, -1, 2, -2], ctildes: [0.4472135954999579, -0.4472135954999579, 0.447213595499958, -0.4472135954999579, 0.4472135954999579]}
    - {mu0: 0, rank: 2, ndensity: 1, num_ms_combs: 5, mus: [1, 1], ns: [2, 2], ls: [2, 2], ms_combs: [-2, 2, -1, 1, 0, 0, 1, -1, 2, -2], ctildes: [0.4472135954999579, -0.4472135954999579, 0.447213595499958, -0.4472135954999579, 0.4472135954999579]}
    - {mu0: 0, rank: 3, ndensity: 1, num_ms_combs: 1, mus: [0, 0, 0], ns: [1, 1, 1], ls: [0, 0, 0], ms_combs: [0, 0, 0], ctildes: [1.0]}
    - {mu0: 0, rank: 3, ndensity: 1, num_ms_combs: 1, mus: [0, 0, 1], ns: [1, 1, 1], ls: [0, 0, 0], ms_combs: [0, 0, 0], ctildes: [1.0]}
    - {mu0: 0, rank: 3, ndensity: 1, num_ms_combs: 1, mus: [0, 1, 1], ns: [1, 1, 1], ls: [0, 0, 0], ms_combs: [0, 0, 0], ctildes: [1.0]}
    - {mu0: 0, rank: 3, ndensity: 1, num_ms_combs: 1, mus: [1, 1, 1], ns: [1, 1, 1], ls: [0, 0, 0], ms_combs: [0, 0, 0], ctildes: [1.0]}
    - {mu0: 0, rank: 3, ndensity: 1, num_ms_combs: 1, mus: [0, 0, 0], ns: [1, 1, 2], ls: [0, 0, 0], ms_combs: [0, 0, 0], ctildes: [1.0]}
    - {mu0: 0, rank: 3, ndensity: 1, num_ms_combs: 1, mus: [0, 0, 1], ns: [1, 1, 2], ls: [0, 0, 0], ms_combs: [0, 0, 0], ctildes: [1.0]}
    - {mu0: 0, rank: 3, ndensity: 1, num_ms_combs: 1, mus: [0, 1, 1], ns: [1, 1, 2], ls: [0, 0, 0], ms_combs: [0, 0, 0], ctildes: [1.0]}
    - {mu0: 0, rank: 3, ndensity: 1, num_ms_combs: 1, mus: [1, 1, 1], ns: [1, 1, 2], ls: [0, 0, 0], ms_combs: [0, 0, 0], ctildes: [1.0]}
    - {mu0: 0, rank: 3, ndensity: 1, num_ms_combs: 1, mus: [0, 0, 1], ns: [1, 2, 1], ls: [0, 0, 0], ms_combs: [0, 0, 0], ctildes: [1.0]}
    - {mu0: 0, rank: 3, ndensity: 1, num_ms_combs: 1, mus: [0, 0, 0], ns: [1, 2, 2], ls: [0, 0, 0], ms_combs: [0, 0, 0], ctildes: [1.0]}
    - {mu0: 0, rank: 3, ndensity: 1, num_ms_combs: 1, mus: [0, 0, 1], ns: [1, 2, 2], ls: [0, 0, 0], ms_combs: [0, 0, 0], ctildes: [1.0]}
    - {mu0: 0, rank: 3, ndensity: 1, num_ms_combs: 1, mus: [0, 1, 1], ns: [1, 2, 2], ls: [0, 0, 0], ms_combs: [0, 0, 0], ctildes: [1.0]}
    - {mu0: 0, rank: 3, ndensity: 1, num_ms_combs: 1, mus: [1, 1, 1], ns: [1, 2, 2], ls: [0, 0, 0], ms_combs: [0, 0, 0], ctildes: [1.0]}
    - {mu0: 0, rank: 3, ndensity: 1, num_ms_combs: 1, mus: [0, 1, 1], ns: [2, 1, 1], ls: [0, 0, 0], ms_combs: [0, 0, 0], ctildes: [1.0]}
    - {mu0: 0, rank: 3, ndensity: 1, num_ms_combs: 1, mus: [0, 1, 1], ns: [2, 1, 2], ls: [0, 0, 0], ms_combs: [0, 0, 0], ctildes: [1.0]}
    - {mu0: 0, rank: 3, ndensity: 1, num_ms_combs: 1, mus: [0, 0, 1], ns: [2, 2, 1], ls: [0, 0, 0], ms_combs: [0, 0, 0], ctildes: [1.0]}
    - {mu0: 0, rank: 3, ndensity: 1, num_ms_combs: 1, mus: [0, 0, 0], ns: [2, 2, 2], ls: [0, 0, 0], ms_combs: [0, 0, 0], ctildes: [1.0]}
    - {mu0: 0, rank: 3, ndensity: 1, num_ms_combs: 1, mus: [0, 0, 1], ns: [2, 2, 2], ls: [0, 0, 0], ms_combs: [0, 0, 0], ctildes: [1.0]}
    - {mu0: 0, rank: 3, ndensity: 1, num_ms_combs: 1, mus: [0, 1, 1], ns: [2, 2, 2], ls: [0, 0, 0], ms_combs: [0, 0, 0], ctildes: [1.0]}
    - {mu0: 0, rank: 3, ndensity: 1, num_ms_combs: 1, mus: [1, 1, 1], ns: [2, 2, 2], ls: [0, 0, 0], ms_combs: [0, 0, 0], ctildes: [1.0]}
    - {mu0: 0, rank: 3, ndensity: 1, num_ms_combs: 3, mus: [0, 0, 0], ns: [1, 1, 1], ls: [0, 1, 1], ms_combs: [0, -1, 1, 0, 0, 0, 0, 1, -1], ctildes: [0.5773502691896257, -0.5773502691896257, 0.5773502691896257]}
    - {mu0: 0, rank: 3, ndensity: 1, num_ms_combs: 3, mus: [0, 0, 1], ns: [1, 1, 1], ls: [0, 1, 1], ms_combs: [0, -1, 1, 0, 0, 0, 0, 1, -1], ctildes: [0.5773502691896257, -0.5773502691896257, 0.5773502691896257]}
    - {mu0: 0, rank: 3, ndensity: 1, num_ms_combs: 3, mus: [0, 1, 1], ns: [1, 1, 1], ls: [0, 1, 1], ms_combs: [0, -1, 1, 0, 0, 0, 0, 1, -1], ctildes: [0.5773502691896257, -0.5773502691896257, 0.5773502691896257]}
    - {mu0: 0, rank: 3, ndensity: 1, num_ms_combs: 3, mus: [1, 1, 1], ns: [1, 1, 1], ls: [0, 1, 1], ms_combs: [0, -1, 1, 0, 0, 0, 0, 1, -1], ctildes: [0.5773502691896257, -0.5773502691896257, 0.5773502691896257]}
    - {mu0: 0, rank: 3, ndensity: 1, num_ms_combs: 3, mus: [0, 0, 0], ns: [1, 1, 2], ls: [0, 1, 1], ms_combs: [0, -1, 1, 0, 0, 0, 0, 1, -1], ctildes: [0.5773502691896257, -0.5773502691896257, 0.5773502691896257]}
    - {mu0: 0, rank: 3, ndensity: 1, num_ms_combs: 3, mus: [0, 0, 1], ns: [1, 1, 2], ls: [0, 1, 1], ms_combs: [0, -1, 1, 0, 0, 0, 0, 1, -1], ctildes: [0.5773502691896257, -0.5773502691896257, 0.5773502691896257]}
    - {mu0: 0, rank: 3, ndensity: 1, num_ms_combs: 3, mus: [0, 1, 1], ns: [1, 1, 2], ls: [0, 1, 1], ms_combs: [0, -1, 1, 0, 0, 0, 0, 1, -1], ctildes: [0.5773502691896257, -0.5773502691896257, 0.5773502691896257]}
    - {mu0: 0, rank: 3, ndensity: 1, num_ms_combs: 3, mus: [1, 1, 1], ns: [1, 1, 2], ls: [0, 1, 1], ms_combs: [0, -1, 1, 0, 0, 0, 0, 1, -1], ctildes: [0.5773502691896257, -0.5773502691896257, 0.5773502691896257]}
    - {mu0: 0, rank: 3, ndensity: 1, num_ms_combs: 3, mus: [0, 0, 1], ns: [1, 2, 1], ls: [0, 1, 1], ms_combs: [0, -1, 1, 0, 0, 0, 0, 1, -1], ctildes: [0.5773502691896257, -0.5773502691896257, 0.5773502691896257]}
    - {mu0: 0, rank: 3, ndensity: 1, num_ms_combs: 3, mus: [0, 0, 0], ns: [1, 2, 2], ls: [0, 1, 1], ms_combs: [0, -1, 1, 0, 0, 0, 0, 1, -1], ctildes: [0.5773502691896257, -0.5773502691896257, 0.5773502691896257]}
    - {mu0: 0, rank: 3, ndensity: 1, num_ms_combs: 3, mus: [0, 0, 1], ns: [1, 2, 2], ls: [0, 1, 1], ms_combs: [0, -1, 1, 0, 0, 0, 0, 1, -1], ctildes: [0.5773502691896257, -0.5773502691896257, 0.5773502691896257]}
    - {mu0: 0, rank: 3, ndensity: 1, num_ms_combs: 3, mus: [0, 1, 1], ns: [1, 2, 2], ls: [0, 1, 1], ms_combs: [0, -1, 1, 0, 0, 0, 0, 1, -1], ctildes: [0.5773502691896257, -0.5773502691896257, 0.5773502691896257]}
    - {mu0: 0, rank: 3, ndensity: 1, num_ms_combs: 3, mus: [1, 1, 1], ns: [1, 2, 2], ls: [0, 1, 1], ms_combs: [0, -1, 1, 0, 0, 0, 0, 1, -1], ctildes: [0.5773502691896257, -0.5773502691896257, 0.5773502691896257]}
    - {mu0: 0, rank: 3, ndensity: 1, num_ms_combs: 3, mus: [0, 0, 0], ns: [2, 1, 1], ls: [0, 1, 1], ms_combs: [0, -1, 1, 0, 0, 0, 0, 1, -1], ctildes: [0.5773502691896257, -0.5773502691896257, 0.5773502691896257]}
    - {mu0: 0, rank: 3, ndensity: 1, num_ms_combs: 3, mus: [0, 0, 1], ns: [2, 1, 1], ls: [0, 1, 1], ms_combs: [0, -1, 1, 0, 0, 0, 0, 1, -1], ctildes: [0.5773502691896257, -0.5773502691896257, 0.5773502691896257]}
    - {mu0: 0, rank: 3, ndensity: 1, num_ms_combs: 3, mus: [0, 1, 1], ns: [2, 1, 1], ls: [0, 1, 1], ms_combs: [0, -1, 1, 0, 0, 0, 0, 1, -1], ctildes: [0.5773502691896257, -0.5773502691896257, 0.5773502691896257]}
    - {mu0: 0, rank: 3, ndensity: 1, num_ms_combs: 3, mus: [1, 1, 1], ns: [2, 1, 1], ls: [0, 1, 1], ms_combs: [0, -1, 1, 0, 0, 0, 0, 1, -1], ctildes: [0.5773502691896257, -0.5773502691896257, 0.5773502691896257]}
    - {mu0: 0, rank: 3, ndensity: 1, num_ms_combs: 3, mus: [0, 0, 0], ns: [2, 1, 2], ls: [0, 1, 1], ms_combs: [0, -1, 1, 0, 0, 0, 0, 1, -1], ctildes: [0.5773502691896257, -0.5773502691896257, 0.5773502691896257]}
    - {mu0: 0, rank: 3, ndensity: 1, num_ms_combs: 3, mus: [0, 0, 1], ns: [2, 1, 2], ls: [0, 1, 1], ms_combs: [0, -1, 1, 0, 0, 0, 0, 1, -1], ctildes: [0.5773502691896257, -0.5773502691896257, 0.5773502691896257]}
    - {mu0: 0, rank: 3, ndensity: 1, num_ms_combs: 3, mus: [0, 1, 1], ns: [2, 1, 2], ls: [0, 1, 1], ms_combs: [0, -1, 1, 0, 0, 0, 0, 1, -1], ctildes: [0.5773502691896257, -0.5773502691896257, 0.5773502691896257]}
    - {mu0: 0, rank: 3, ndensity: 1, num_ms_combs: 3, mus: [1, 1, 1], ns: [2, 1, 2], ls: [0, 1, 1], ms_combs: [0, -1, 1, 0, 0, 0, 0, 1, -1], ctildes: [0.5773502691896257, -0.5773502691896257, 0.5773502691896257]}
    - {mu0: 0, rank: 3, ndensity: 1, num_ms_combs: 3, mus: [0, 0, 1], ns: [2, 2, 1], ls: [0, 1, 1], ms_combs: [0, -1, 1, 0, 0, 0, 0, 1, -1], ctildes: [0.5773502691896257, -0.5773502691896257, 0.5773502691896257]}
    - {mu0: 0, rank: 3, ndensity: 1, num_ms_combs: 3, mus: [0, 0, 0], ns: [2, 2, 2], ls: [0, 1, 1], ms_combs: [0, -1, 1, 0, 0, 0, 0, 1, -1], ctildes: [0.5773502691896257, -0.5773502691896257, 0.5773502691896257]}
    - {mu0: 0, rank: 3, ndensity: 1, num_ms_combs: 3, mus: [0, 0, 1], ns: [2, 2, 2], ls: [0, 1, 1], ms_combs: [0, -1, 1, 0, 0, 0, 0, 1, -1], ctildes: [0.5773502691896257, -0.5773502691896257, 0.5773502691896257]}
    - {mu0: 0, rank: 3, ndensity: 1, num_ms_combs: 3, mus: [0, 1, 1], ns: [2, 2, 2], ls: [0, 1, 1], ms_combs: [0, -1, 1, 0, 0, 0, 0, 1, -1], ctildes: [0.5773502691896257, -0.5773502691896257, 0.5773502691896257]}
    - {mu0: 0, rank: 3, ndensity: 1, num_ms_combs: 3, mus: [1, 1, 1], ns: [2, 2, 2], ls: [0, 1, 1], ms_combs: [0, -1, 1, 0, 0, 0, 0, 1, -1], ctildes: [0.5773502691896257, -0.5773502691896257, 0.5773502691896257]}
    - {mu0: 0, rank: 3, ndensity: 1, num_ms_combs: 5, mus: [0, 0, 0], ns: [1, 1, 1], ls: [0, 2, 2], ms_combs: [0, -2, 2, 0, -1, 1, 0, 0, 0, 0, 1, -1, 0, 2, -2], ctildes: [0.4472135954999579, -0.4472135954999579, 0.447213595499958, -0.4472135954999579, 0.4472135954999579]}
    - {mu0: 0, rank: 3, ndensity: 1, num_ms_combs: 5, mus: [0, 0, 1], ns: [1, 1, 1], ls: [0, 2, 2], ms_combs: [0, -2, 2, 0, -1, 1, 0, 0, 0, 0, 1, -1, 0, 2, -2], ctildes: [0.4472135954999579, -0.4472135954999579, 0.447213595499958, -0.4472135954999579, 0.4472135954999579]}
    - {mu0: 0, rank: 3, ndensity: 1, num_ms_combs: 5, mus: [0, 1, 1], ns: [1, 1, 1], ls: [0, 2, 2], ms_combs: [0, -2, 2, 0, -1, 1, 0, 0, 0, 0, 1, -1, 0, 2, -2], ctildes: [0.4472135954999579, -0.4472135954999579, 0.447213595499958, -0.4472135954999579, 0.4472135954999579]}
    - {mu0: 0, rank: 3, ndensity: 1, num_ms_combs: 5, mus: [1, 1, 1], ns: [1, 1, 1], ls: [0, 2, 2], ms_combs: [0, -2, 2, 0, -1, 1, 0, 0, 0, 0, 1, -1, 0, 2, -2], ctildes: [0.4472135954999579, -0.4472135954999579, 0.447213595499958, -0.4472135954999579, 0.4472135954999579]}
    - {mu0: 0, rank: 3, ndensity: 1, num_ms_combs: 5, mus: [0, 0, 0], ns: [1, 1, 2], ls: [0, 2, 2], ms_combs: [0, -2, 2, 0, -1, 1, 0, 0, 0, 0, 1, -1, 0, 2, -2], ctildes: [0.4472135954999579, -0.4472135954999579, 0.447213595499958, -0.4472135954999579, 0.4472135954999579]}
    - {mu0: 0, rank: 3, ndensity: 1, num_ms_combs: 5, mus: [0, 0, 1], ns: [1, 1, 2], ls: [0, 2, 2], ms_combs: [0, -2, 2, 0, -1, 1, 0, 0, 0, 0, 1, -1, 0, 2, -2], ctildes: [0.4472135954999579, -0.4472135954999579, 0.447213595499958, -0.4472135954999579, 0.4472135954999579]}
    - {mu0: 0, rank: 3, ndensity: 1, num_ms_combs: 5, mus: [0, 1, 1], ns: [1, 1, 2], ls: [0, 2, 2], ms_combs: [0, -2, 2, 0, -1, 1, 0, 0, 0, 0, 1, -1, 0, 2, -2], ctildes: [0.4472135954999579, -0.4472135954999579, 0.447213595499958, -0.4472135954999579, 0.4472135954999579]}
    - {mu0: 0, rank: 3, ndensity: 1, num_ms_combs: 5, mus: [1, 1, 1], ns: [1, 1, 2], ls: [0, 2, 2], ms_combs: [0, -2, 2, 0, -1, 1, 0, 0, 0, 0, 1, -1, 0, 2, -2], ctildes: [0.4472135954999579, -0.4472135954999579, 0.447213595499958, -0.4472135954999579, 0.4472135954999579]}
    - {mu0: 0, rank: 3, ndensity: 1, num_ms_combs: 5, mus: [0, 0, 1], ns: [1, 2, 1], ls: [0, 2, 2], ms_combs: [0, -2, 2, 0, -1, 1, 0, 0, 0, 0, 1, -1, 0, 2, -2], ctildes: [0.4472135954999579, -0.4472135954999579, 0.447213595499958, -0.4472135954999579, 0.4472135954999579]}
    - {mu0: 0, rank: 3, ndensity: 1, num_ms_combs: 5, mus: [0, 0, 0], ns: [1, 2, 2], ls: [0, 2, 2], ms_combs: [0, -2, 2, 0, -1, 1, 0, 0, 0, 0, 1, -1, 0, 2, -2], ctildes: [0.4472135954999579, -0.4472135954999579, 0.447213595499958, -0.4472135954999579, 0.4472135954999579]}
    - {mu0: 0, rank: 3, ndensity: 1, num_ms_combs: 5, mus: [0, 0, 1], ns: [1, 2, 2], ls: [0, 2, 2], ms_combs: [0, -2, 2, 0, -1, 1, 0, 0, 0, 0, 1, -1, 0, 2, -2], ctildes: [0.4472135954999579, -0.4472135954999579, 0.447213595499958, -0.4472135954999579, 0.4472135954999579]}
    - {mu0: 0, rank: 3, ndensity: 1, num_ms_combs: 5, mus: [0, 1, 1], ns: [1, 2, 2], ls: [0, 2, 2], ms_combs: [0, -2, 2, 0, -1, 1, 0, 0, 0, 0, 1, -1, 0, 2, -2], ctildes: [0.4472135954999579, -0.4472135954999579, 0.447213595499958, -0.4472135954999579, 0.4472135954999579]}
    - {mu0: 0, rank: 3, ndensity: 1, num_ms_combs: 5, mus: [1, 1, 1], ns: [1, 2, 2], ls: [0, 2, 2], ms_combs: [0, -2, 2, 0, -1, 1, 0, 0, 0, 0, 1, -1, 0, 2, -2], ctildes: [0.4472135954999579, -0.4472135954999579, 0.447213595499958, -0.4472135954999579, 0.4472135954999579]}
    - {mu0: 0, rank: 3, ndensity: 1, num_ms_combs: 5, mus: [0, 0, 0], ns: [2, 1, 1], ls: [0, 2, 2], ms_combs: [0, -2, 2, 0, -1, 1, 0, 0, 0, 0, 1, -1, 0, 2, -2], ctildes: [0.4472135954999579, -0.4472135954999579, 0.447213595499958, -0.4472135954999579, 0.4472135954999579]}
    - {mu0: 0, rank: 3, ndensity: 1, num_ms_combs: 5, mus: [0, 0, 1], ns: [2, 1, 1], ls: [0, 2, 2], ms_combs: [0, -2, 2, 0, -1, 1, 0, 0, 0, 0, 1, -1, 0, 2, -2], ctildes: [0.4472135954999579, -0.4472135954999579, 0.447213595499958, -0.4472135954999579, 0.4472135954999579]}
    - {mu0: 0, rank: 3, ndensity: 1, num_ms_combs: 5, mus: [0, 1, 1], ns: [2, 1, 1], ls: [0, 2, 2], ms_combs: [0, -2, 2, 0, -1, 1, 0, 0, 0, 0, 1, -1, 0, 2, -2], ctildes: [0.4472135954999579, -0.4472135954999579, 0.447213595499958, -0.4472135954999579, 0.4472135954999579]}
    - {mu0: 0, rank: 3, ndensity: 1, num_ms_combs: 5, mus: [1, 1, 1], ns: [2, 1, 1], ls: [0, 2, 2], ms_combs: [0, -2, 2, 0, -1, 1, 0, 0, 0, 0, 1, -1, 0, 2, -2], ctildes: [0.4472135954999579, -0.4472135954999579, 0.447213595499958, -0.4472135954999579, 0.4472135954999579]}
    - {mu0: 0, rank: 3, ndensity: 1, num_ms_combs: 5, mus: [0, 0, 0], ns: [2, 1, 2], ls: [0, 2, 2], ms_combs: [0, -2, 2, 0, -1, 1, 0, 0, 0, 0, 1, -1, 0, 2, -2], ctildes: [0.4472135954999579, -0.4472135954999579, 0.447213595499958, -0.4472135954999579, 0.4472135954999579]}
    - {mu0: 0, rank: 3, ndensity: 1, num_ms_combs: 5, mus: [0, 0, 1], ns: [2, 1, 2], ls: [0, 2, 2], ms_combs: [0, -2, 2, 0, -1, 1, 0, 0, 0, 0, 1, -1, 0, 2, -2], ctildes: [0.4472135954999579, -0.4472135954999579, 0.447213595499958, -0.4472135954999579, 0.4472135954999579]}
    - {mu0: 0, rank: 3, ndensity: 1, num_ms_combs: 5, mus: [0, 1, 1], ns: [2, 1, 2], ls: [0, 2, 2], ms_combs: [0, -2, 2, 0, -1, 1, 0, 0, 0, 0, 1, -1, 0, 2, -2], ctildes: [0.4472135954999579, -0.4472135954999579, 0.447213595499958, -0.4472135954999579, 0.4472135954999579]}
    - {mu0: 0, rank: 3, ndensity: 1, num_ms_combs: 5, mus: [1, 1, 1], ns: [2, 1, 2], ls: [0, 2, 2], ms_combs: [0, -2, 2, 0, -1, 1, 0, 0, 0, 0, 1, -1, 0, 2, -2], ctildes: [0.4472135954999579, -0.4472135954999579, 0.447213595499958, -0.4472135954999579, 0.4472135954999579]}
    - {mu0: 0, rank: 3, ndensity: 1, num_ms_combs: 5, mus: [0, 0, 1], ns: [2, 2, 1], ls: [0, 2, 2], ms_combs: [0, -2, 2, 0, -1, 1, 0, 0, 0, 0, 1, -1, 0, 2, -2], ctildes: [0.4472135954999579, -0.4472135954999579, 0.447213595499958, -0.4472135954999579, 0.4472135954999579]}
    - {mu0: 0, rank: 3, ndensity: 1, num_ms_combs: 5, mus: [0, 0, 0], ns: [2, 2, 2], ls: [0, 2, 2], ms_combs: [0, -2, 2, 0, -1, 1, 0, 0, 0, 0, 1, -1, 0, 2, -2], ctildes: [0.4472135954999579, -0.4472135954999579, 0.447213595499958, -0.4472135954999579, 0.4472135954999579]}
    - {mu0: 0, rank: 3, ndensity: 1, num_ms_combs: 5, mus: [0, 0, 1], ns: [2, 2, 2], ls: [0, 2, 2], ms_combs: [0, -2, 2, 0, -1, 1, 0, 0, 0, 0, 1, -1, 0, 2, -2], ctildes: [0.4472135954999579, -0.4472135954999579, 0.447213595499958, -0.4472135954999579, 0.4472135954999579]}
    - {mu0: 0, rank: 3, ndensity: 1, num_ms_combs: 5, mus: [0, 1, 1], ns: [2, 2, 2], ls: [0, 2, 2], ms_combs: [0, -2, 2, 0, -1, 1, 0, 0, 0, 0, 1, -1, 0, 2, -2], ctildes: [0.4472135954999579, -0.4472135954999579, 0.447213595499958, -0.4472135954999579, 0.4472135954999579]}
    - {mu0: 0, rank: 3, ndensity: 1, num_ms_combs: 5, mus: [1, 1, 1], ns: [2, 2, 2], ls: [0, 2, 2], ms_combs: [0, -2, 2, 0, -1, 1, 0, 0, 0, 0, 1, -1, 0, 2, -2], ctildes: [0.4472135954999579, -0.4472135954999579, 0.447213595499958, -0.4472135954999579, 0.4472135954999579]}
    - {mu0: 0, rank: 3, ndensity: 1, num_ms_combs: 9, mus: [0, 0, 0], ns: [1, 1, 1], ls: [1, 1, 2], ms_combs: [-1, -1, 2, -1, 0, 1, -1, 1, 0, 0, -1, 1, 0, 0, 0, 0, 1, -1, 1, -1, 0, 1, 0, -1, 1, 1, -2], ctildes: [0.4472135954999579, -0.31622776601683794, 0.18257418583505539, -0.31622776601683794, 0.36514837167011077, -0.31622776601683794, 0.18257418583505539, -0.31622776601683794, 0.4472135954999579]}
    - {mu0: 0, rank: 3, ndensity: 1, num_ms_combs: 9, mus: [0, 0, 1], ns: [1, 1, 1], ls: [1, 1, 2], ms_combs: [-1, -1, 2, -1, 0, 1, -1, 1, 0, 0, -1, 1, 0, 0, 0, 0, 1, -1, 1, -1, 0, 1, 0, -1, 1, 1, -2], ctildes: [0.4472135954999579, -0.31622776601683794, 0.18257418583505539, -0.31622776601683794, 0.36514837167011077, -0.31622776601683794, 0.18257418583505539, -0.31622776601683794, 0.4472135954999579]}
    - {mu0: 0, rank: 3, ndensity: 1, num_ms_combs: 9, mus: [0, 1, 1], ns: [1, 1, 1], ls: [1, 1, 2], ms_combs: [-1, -1, 2, -1, 0, 1, -1, 1, 0, 0, -1, 1, 0, 0, 0, 0, 1, -1, 1, -1, 0, 1, 0, -1, 1, 1, -2], ctildes: [0.4472135954999579, -0.31622776601683794, 0.18257418583505539, -0.31622776601683794, 0.36514837167011077, -0.31622776601683794, 0.18257418583505539, -0.31622776601683794, 0.4472135954999579]}
    - {mu0: 0, rank: 3, ndensity: 1, num_ms_combs: 9, mus: [1, 1, 1], ns: [1, 1, 1], ls: [1, 1, 2], ms_combs: [-1, -1, 2, -1, 0, 1, -1, 1, 0, 0, -1, 1, 0, 0, 0, 0, 1, -1, 1, -1, 0, 1, 0, -1, 1, 1, -2], ctildes: [0.4472135954999579, -0.31622776601683794, 0.18257418583505539, -0.31622776601683794, 0.36514837167011077, -0.31622776601683794, 0.18257418583505539, -0.31622776601683794, 0.4472135954999579]}
    - {mu0: 0, rank: 3, ndensity: 1, num_ms_combs: 9, mus: [0, 0, 0], ns: [1, 1, 2], ls: [1, 1, 2], ms_combs: [-1, -1, 2, -1, 0, 1, -1, 1, 0, 0, -1, 1, 0, 0, 0, 0, 1, -1, 1, -1, 0, 1, 0, -1, 1, 1, -2], ctildes: [0.4472135954999579, -0.31622776601683794, 0.18257418583505539, -0.31622776601683794, 0.36514837167011077, -0.31622776601683794, 0.18257418583505539, -0.31622776601683794, 0.4472135954999579]}
    - {mu0: 0, rank: 3, ndensity: 1, num_ms_combs: 9, mus: [0, 0, 1], ns: [1, 1, 2], ls: [1, 1, 2], ms_combs: [-1, -1, 2, -1, 0, 1, -1, 1, 0, 0, -1, 1, 0, 0, 0, 0, 1, -1, 1, -1, 0, 1, 0, -1, 1, 1, -2], ctildes: [0.4472135954999579, -0.31622776601683794, 0.18257418583505539, -0.31622776601683794, 0.36514837167011077, -0.31622776601683794, 0.18257418583505539, -0.31622776601683794, 0.4472135954999579]}
    - {mu0: 0, rank: 3, ndensity: 1, num_ms_combs: 9, mus: [0, 1, 1], ns: [1, 1, 2], ls: [1, 1, 2], ms_combs: [-1, -1, 2, -1, 0, 1, -1, 1, 0, 0, -1, 1, 0, 0, 0, 0, 1, -1, 1, -1, 0, 1, 0, -1, 1, 1, -2], ctildes: [0.4472135954999579, -0.31622776601683794, 0.18257418583505539, -0.31622776601683794, 0.36514837167011077, -0.31622776601683794, 0.18257418583505539, -0.31622776601683794, 0.4472135954999579]}
    - {mu0: 0, rank: 3, ndensity: 1, num_ms_combs: 9, mus: [1, 1, 1], ns: [1, 1, 2], ls: [1, 1, 2], ms_combs: [-1, -1, 2, -1, 0, 1, -1, 1, 0, 0, -1, 1, 0, 0, 0, 0, 1, -1, 1, -1, 0, 1, 0, -1, 1, 1, -2], ctildes: [0.4472135954999579, -0.31622776601683794, 0.18257418583505539, -0.31622776601683794, 0.36514837167011077, -0.31622776601683794, 0.18257418583505539, -0.31622776601683794, 0.4472135954999579]}
    - {mu0: 0, rank: 3, ndensity: 1, num_ms_combs: 9, mus: [0, 0, 0], ns: [1, 2, 1], ls: [1, 1, 2], ms_combs: [-1, -1, 2, -1, 0, 1, -1, 1, 0, 0, -1, 1, 0, 0, 0, 0, 1, -1, 1, -1, 0, 1, 0, -1, 1, 1, -2], ctildes: [0.4472135954999579, -0.31622776601683794, 0.18257418583505539, -0.31622776601683794, 0.36514837167011077, -0.31622776601683794, 0.18257418583505539, -0.31622776601683794, 0.4472135954999579]}
    - {mu0: 0, rank: 3, ndensity: 1, num_ms_combs: 9, mus: [0, 0, 1], ns: [1, 2, 1], ls: [1, 1, 2], ms_combs: [-1, -1, 2, -1, 0, 1, -1, 1, 0, 0, -1, 1, 0, 0, 0, 0, 1, -1, 1, -1, 0, 1, 0, -1, 1, 1, -2], ctildes: [0.4472135954999579, -0.31622776601683794, 0.18257418583505539, -0.31622776601683794, 0.36514837167011077, -0.31622776601683794, 0.18257418583505539, -0.31622776601683794, 0.4472135954999579]}
    - {mu0: 0, rank: 3, ndensity: 1, num_ms_combs: 9, mus: [0, 1, 1], ns: [1, 2, 1], ls: [1, 1, 2], ms_combs: [-1, -1, 2, -1, 0, 1, -1, 1, 0, 0, -1, 1, 0, 0, 0, 0, 1, -1, 1, -1, 0, 1, 0, -1, 1, 1, -2], ctildes: [0.4472135954999579, -0.31622776601683794, 0.18257418583505539, -0.31622776601683794, 0.36514837167011077, -0.31622776601683794, 0.18257418583505539, -0.31622776601683794, 0.4472135954999579]}
    - {mu0: 0, rank: 3, ndensity: 1, num_ms_combs: 9, mus: [1, 1, 1], ns: [1, 2, 1], ls: [1, 1, 2], ms_combs: [-1, -1, 2, -1, 0, 1, -1, 1, 0, 0, -1, 1, 0, 0, 0, 0, 1, -1, 1, -1, 0, 1, 0, -1, 1, 1, -2], ctildes: [0.4472135954999579, -0.31622776601683794, 0.18257418583505539, -0.31622776601683794, 0.36514837167011077, -0.31622776601683794, 0.18257418583505539, -0.31622776601683794, 0.4472135954999579]}
    - {mu0: 0, rank: 3, ndensity: 1, num_ms_combs: 9, mus: [0, 0, 0], ns: [1, 2, 2], ls: [1, 1, 2], ms_combs: [-1, -1, 2, -1, 0, 1, -1, 1, 0, 0, -1, 1, 0, 0, 0, 0, 1, -1, 1, -1, 0, 1, 0, -1, 1, 1, -2], ctildes: [0.4472135954999579, -0.31622776601683794, 0.18257418583505539, -0.31622776601683794, 0.36514837167011077, -0.31622776601683794, 0.18257418583505539, -0.31622776601683794, 0.4472135954999579]}
    - {mu0: 0, rank: 3, ndensity: 1, num_ms_combs: 9, mus: [0, 0, 1], ns: [1, 2, 2], ls: [1, 1, 2], ms_combs: [-1, -1, 2, -1, 0, 1, -1, 1, 0, 0, -1, 1, 0, 0, 0, 0, 1, -1, 1, -1, 0, 1, 0, -1, 1, 1, -2], ctildes: [0.4472135954999579, -0.31622776601683794, 0.18257418583505539, -0.31622776601683794, 0.36514837167011077, -0.31622776601683794, 0.18257418583505539, -0.31622776601683794, 0.4472135954999579]}
    - {mu0: 0, rank: 3, ndensity: 1, num_ms_combs: 9, mus: [0, 1, 1], ns: [1, 2, 2], ls: [1, 1, 2], ms_combs: [-1, -1, 2, -1, 0, 1, -1, 1, 0, 0, -1, 1, 0, 0, 0, 0, 1, -1, 1, -1, 0, 1, 0, -1, 1, 1, -2], ctildes: [0.4472135954999579, -0.31622776601683794, 0.18257418583505539, -0.31622776601683794, 0.36514837167011077, -0.31622776601683794, 0.18257418583505539, -0.31622776601683794, 0.4472135954999579]}
    - {mu0: 0, rank: 3, ndensity: 1, num_ms_combs: 9, mus: [1, 1, 1], ns: [1, 2, 2], ls: [1, 1, 2], ms_combs: [-1, -1, 2, -1, 0, 1, -1, 1, 0, 0, -1, 1, 0, 0, 0, 0, 1, -1, 1, -1, 0, 1, 0, -1, 1, 1, -2], ctildes: [0.4472135954999579, -0.31622776601683794, 0.18257418583505539, -0.31622776601683794, 0.36514837167011077, -0.31622776601683794, 0.18257418583505539, -0.31622776601683794, 0.4472135954999579]}
    - {mu0: 0, rank: 3, ndensity: 1, num_ms_combs: 9, mus: [0, 1, 1], ns: [2, 1, 1], ls: [1, 1, 2], ms_combs: [-1, -1, 2, -1, 0, 1, -1, 1, 0, 0, -1, 1, 0, 0, 0, 0, 1, -1, 1, -1, 0, 1, 0, -1, 1, 1, -2], ctildes: [0.4472135954999579, -0.31622776601683794, 0.18257418583505539, -0.31622776601683794, 0.36514837167011077, -0.31622776601683794, 0.18257418583505539, -0.31622776601683794, 0.4472135954999579]}
    - {mu0: 0, rank: 3, ndensity: 1, num_ms_combs: 9, mus: [0, 1, 1], ns: [2, 1, 2], ls: [1, 1, 2], ms_combs: [-1, -1, 2, -1, 0, 1, -1, 1, 0, 0, -1, 1, 0, 0, 0, 0, 1, -1, 1, -1, 0, 1, 0, -1, 1, 1, -2], ctildes: [0.4472135954999579, -0.31622776601683794, 0.18257418583505539, -0.31622776601683794, 0.36514837167011077, -0.31622776601683794, 0.18257418583505539, -0.31622776601683794, 0.4472135954999579]}
    - {mu0: 0, rank: 3, ndensity: 1, num_ms_combs: 9, mus: [0, 0, 0], ns: [2, 2, 1], ls: [1, 1, 2], ms_combs: [-1, -1, 2, -1, 0, 1, -1, 1, 0, 0, -1, 1, 0, 0, 0, 0, 1, -1, 1, -1, 0, 1, 0, -1, 1, 1, -2], ctildes: [0.4472135954999579, -0.31622776601683794, 0.18257418583505539, -0.31622776601683794, 0.36514837167011077, -0.31622776601683794, 0.18257418583505539, -0.31622776601683794, 0.4472135954999579]}
    - {mu0: 0, rank: 3, ndensity: 1, num_ms_combs: 9, mus: [0, 0, 1], ns: [2, 2, 1], ls: [1, 1, 2], ms_combs: [-1, -1, 2, -1, 0, 1, -1, 1, 0, 0, -1, 1, 0, 0, 0, 0, 1, -1, 1, -1, 0, 1, 0, -1, 1, 1, -2], ctildes: [0.4472135954999579, -0.31622776601683794, 0.18257418583505539, -0.31622776601683794, 0.36514837167011077, -0.31622776601683794, 0.18257418583505539, -0.31622776601683794, 0.4472135954999579]}
    - {mu0: 0, rank: 3, ndensity: 1, num_ms_combs: 9, mus: [0, 1, 1], ns: [2, 2, 1], ls: [1, 1, 2], ms_combs: [-1, -1, 2, -1, 0, 1, -1, 1, 0, 0, -1, 1, 0, 0, 0, 0, 1, -1, 1, -1, 0, 1, 0, -1, 1, 1, -2], ctildes: [0.4472135954999579, -0.31622776601683794, 0.18257418583505539, -0.31622776601683794, 0.36514837167011077, -0.31622776601683794, 0.18257418583505539, -0.31622776601683794, 0.4472135954999579]}
    - {mu0: 0, rank: 3, ndensity: 1, num_ms_combs: 9, mus: [1, 1, 1], ns: [2, 2, 1], ls: [1, 1, 2], ms_combs: [-1, -1, 2, -1, 0, 1, -1, 1, 0, 0, -1, 1, 0, 0, 0, 0, 1, -1, 1, -1, 0, 1, 0, -1, 1, 1, -2], ctildes: [0.4472135954999579, -0.31622776601683794, 0.18257418583505539, -0.31622776601683794, 0.36514837167011077, -0.31622776601683794, 0.18257418583505539, -0.31622776601683794, 0.4472135954999579]}
    - {mu0: 0, rank: 3, ndensity: 1, num_ms_combs: 9, mus: [0, 0, 0], ns: [2, 2, 2], ls: [1, 1, 2], ms_combs: [-1, -1, 2, -1, 0, 1, -1, 1, 0, 0, -1, 1, 0, 0, 0, 0, 1, -1, 1, -1, 0, 1, 0, -1, 1, 1, -2], ctildes: [0.4472135954999579, -0.31622776601683794, 0.18257418583505539, -0.31622776601683794, 0.36514837167011077, -0.31622776601683794, 0.18257418583505539, -0.31622776601683794, 0.4472135954999579]}
    - {mu0: 0, rank: 3, ndensity: 1, num_ms_combs: 9, mus: [0, 0, 1], ns: [2, 2, 2], ls: [1, 1, 2], ms_combs: [-1, -1, 2, -1, 0, 1, -1, 1, 0, 0, -1, 1, 0, 0, 0, 0, 1, -1, 1, -1, 0, 1, 0, -1, 1, 1, -2], ctildes: [0.4472135954999579, -0.31622776601683794, 0.18257418583505539, -0.31622776601683794, 0.36514837167011077, -0.31622776601683794, 0.18257418583505539, -0.31622776601683794, 0.4472135954999579]}
    - {mu0: 0, rank: 3, ndensity: 1, num_ms_combs: 9, mus: [0, 1, 1], ns: [2, 2, 2], ls: [1, 1, 2], ms_combs: [-1, -1, 2, -1, 0, 1, -1, 1, 0, 0, -1, 1, 0, 0, 0, 0, 1, -1, 1, -1, 0, 1, 0, -1, 1, 1, -2], ctildes: [0.4472135954999579, -0.31622776601683794, 0.18257418583505539, -0.31622776601683794, 0.36514837167011077, -0.31622776601683794, 0.18257418583505539, -0.31622776601683794, 0.4472135954999579]}
    - {mu0: 0, rank: 3, ndensity: 1, num_ms_combs: 9, mus: [1, 1, 1], ns: [2, 2, 2], ls: [1, 1, 2], ms_combs: [-1, -1, 2, -1, 0, 1, -1, 1, 0, 0, -1, 1, 0, 0, 0, 0, 1, -1, 1, -1, 0, 1, 0, -1, 1, 1, -2], ctildes: [0.4472135954999579, -0.31622776601683794, 0.18257418583505539, -0.31622776601683794, 0.36514837167011077, -0.31622776601683794, 0.18257418583505539, -0.31622776601683794, 0.4472135954999579]}
    - {mu0: 0, rank: 3, ndensity: 1, num_ms_combs: 19, mus: [0, 0, 0], ns: [1, 1, 1], ls: [2, 2, 2], ms_combs: [-2, 0, 2, -2, 1, 1, -2, 2, 0, -1, -1, 2, -1, 0, 1, -1, 1, 0, -1, 2, -1, 0, -2, 2, 0, -1, 1, 0, 0, 0, 0, 1, -1, 0, 2, -2, 1, -2, 1, 1, -1, 0, 1, 0, -1, 1, 1, -2, 2, -2, 0, 2, -1, -1, 2, 0, -2], ctildes: [0.23904572186687872, -0.2927700218845599, 0.23904572186687875, -0.2927700218845599, 0.11952286093343936, 0.11952286093343938, -0.2927700218845599, 0.23904572186687872, 0.11952286093343936, -0.23904572186687875, 0.11952286093343936, 0.23904572186687872, -0.2927700218845599, 0.11952286093343938, 0.11952286093343936, -0.2927700218845599, 0.23904572186687875, -0.2927700218845599, 0.23904572186687872]}
    - {mu0: 0, rank: 3, ndensity: 1, num_ms_combs: 19, mus: [0, 0, 1], ns: [1, 1, 1], ls: [2, 2, 2], ms_combs: [-2, 0, 2, -2, 1, 1, -2, 2, 0, -1, -1, 2, -1, 0, 1, -1, 1, 0, -1, 2, -1, 0, -2, 2, 0, -1, 1, 0, 0, 0, 0, 1, -1, 0, 2, -2, 1, -2, 1, 1, -1, 0, 1, 0, -1, 1, 1, -2, 2, -2, 0, 2, -1, -1, 2, 0, -2], ctildes: [0.23904572186687872, -0.2927700218845599, 0.23904572186687875, -0.2927700218845599, 0.11952286093343936, 0.11952286093343938, -0.2927700218845599, 0.23904572186687872, 0.11952286093343936, -0.23904572186687875, 0.11952286093343936, 0.23904572186687872, -0.2927700218845599, 0.11952286093343938, 0.11952286093343936, -0.2927700218845599, 0.23904572186687875, -0.2927700218845599, 0.23904572186687872]}
    - {mu0: 0, rank: 3, ndensity: 1, num_ms_combs: 19, mus: [0, 1, 1], ns: [1, 1, 1], ls: [2, 2, 2], ms_combs: [-2, 0, 2, -2, 1, 1, -2, 2, 0, -1, -1, 2, -1, 0, 1, -1, 1, 0, -1, 2, -1, 0, -2, 2, 0, -1, 1, 0, 0, 0, 0, 1, -1, 0, 2, -2, 1, -2, 1, 1, -1, 0, 1, 0, -1, 1, 1, -2, 2, -2, 0, 2, -1, -1, 2, 0, -2], ctildes: [0.23904572186687872, -0.2927700218845599, 0.23904572186687875, -0.2927700218845599, 0.11952286093343936, 0.11952286093343938, -0.2927700218845599, 0.23904572186687872, 0.11952286093343936, -0.23904572186687875, 0.11952286093343936, 0.23904572186687872, -0.2927700218845599, 0.11952286093343938, 0.11952286093343936, -0.2927700218845599, 0.23904572186687875, -0.2927700218845599, 0.23904572186687872]}
    - {mu0: 0, rank: 3, ndensity: 1, num_ms_combs: 19, mus: [1, 1, 1], ns: [1, 1, 1], ls: [2, 2, 2], ms_combs: [-2, 0, 2, -2, 1, 1, -2, 2, 0, -1, -1, 2, -1, 0, 1, -1, 1, 0, -1, 2, -1, 0, -2, 2, 0, -1, 1, 0, 0, 0, 0, 1, -1, 0, 2, -2, 1, -2, 1, 1, -1, 0, 1, 0, -1, 1, 1, -2, 2, -2, 0, 2, -1, -1, 2, 0, -2], ctildes: [0.23904572186687872, -0.2927700218845599, 0.23904572186687875, -0.2927700218845599, 0.11952286093343936, 0.11952286093343938, -0.2927700218845599, 0.23904572186687872, 0.11952286093343936, -0.23904572186687875, 0.11952286093343936, 0.23904572186687872, -0.2927700218845599, 0.11952286093343938, 0.11952286093343936, -0.2927700218845599, 0.23904572186687875, -0.2927700218845599, 0.23904572186687872]}
    - {mu0: 0, rank: 3, ndensity: 1, num_ms_combs: 19, mus: [0, 0, 0], ns: [1, 1, 2], ls: [2, 2, 2], ms_combs: [-2, 0, 2, -2, 1, 1, -2, 2, 0, -1, -1, 2, -1, 0, 1, -1, 1, 0, -1, 2, -1, 0, -2, 2, 0, -1, 1, 0, 0, 0, 0, 1, -1, 0, 2, -2, 1, -2, 1, 1, -1, 0, 1, 0, -1, 1, 1, -2, 2, -2, 0, 2, -1, -1, 2, 0, -2], ctildes: [0.23904572186687872, -0.2927700218845599, 0.23904572186687875, -0.2927700218845599, 0.11952286093343936, 0.11952286093343938, -0.2927700218845599, 0.23904572186687872, 0.11952286093343936, -0.23904572186687875, 0.11952286093343936, 0.23904572186687872, -0.2927700218845599, 0.11952286093343938, 0.11952286093343936, -0.2927700218845599, 0.23904572186687875, -0.2927700218845599, 0.23904572186687872]}
    - {mu0: 0, rank: 3, ndensity: 1, num_ms_combs: 19, mus: [0, 0, 1], ns: [1, 1, 2], ls: [2, 2, 2], ms_combs: [-2, 0, 2, -2, 1, 1, -2, 2, 0, -1, -1, 2, -1, 0, 1, -1, 1, 0, -1, 2, -1, 0, -2, 2, 0, -1, 1, 0, 0, 0, 0, 1, -1, 0, 2, -2, 1, -2, 1, 1, -1, 0, 1, 0, -1, 1, 1, -2, 2, -2, 0, 2, -1, -1, 2, 0, -2], ctildes: [0.23904572186687872, -0.2927700218845599, 0.23904572186687875, -0.2927700218845599, 0.11952286093343936, 0.11952286093343938, -0.2927700218845599, 0.23904572186687872, 0.11952286093343936, -0.23904572186687875, 0.11952286093343936, 0.23904572186687872, -0.2927700218845599, 0.11952286093343938, 0.11952286093343936, -0.2927700218845599, 0.23904572186687875, -0.2927700218845599, 0.23904572186687872]}
    - {mu0: 0, rank: 3, ndensity: 1, num_ms_combs: 19, mus: [0, 1, 1], ns: [1, 1, 2], ls: [2, 2, 2], ms_combs: [-2, 0, 2, -2, 1, 1, -2, 2, 0, -1, -1, 2, -1, 0, 1, -1, 1, 0, -1, 2, -1, 0, -2, 2, 0, -1, 1, 0, 0, 0, 0, 1, -1, 0, 2, -2, 1, -2, 1, 1, -1, 0, 1, 0, -1, 1, 1, -2, 2, -2, 0, 2, -1, -1, 2, 0, -2], ctildes: [0.23904572186687872, -0.2927700218845599, 0.23904572186687875, -0.2927700218845599, 0.11952286093343936, 0.11952286093343938, -0.2927700218845599, 0.23904572186687872, 0.11952286093343936, -0.23904572186687875, 0.11952286093343936, 0.23904572186687872, -0.2927700218845599, 0.11952286093343938, 0.11952286093343936, -0.2927700218845599, 0.23904572186687875, -0.2927700218845599, 0.23904572186687872]}
    - {mu0: 0, rank: 3, ndensity: 1, num_ms_combs: 19, mus: [1, 1, 1], ns: [1, 1, 2], ls: [2, 2, 2], ms_combs: [-2, 0, 2, -2, 1, 1, -2, 2, 0, -1, -1, 2, -1, 0, 1, -1, 1, 0, -1, 2, -1, 0, -2, 2, 0, -1, 1, 0, 0, 0, 0, 1, -1, 0, 2, -2, 1, -2, 1, 1, -1, 0, 1, 0, -1, 1, 1, -2, 2, -2, 0, 2, -1, -1, 2, 0, -2], ctildes: [0.23904572186687872, -0.2927700218845599, 0.23904572186687875, -0.2927700218845599, 0.11952286093343936, 0.11952286093343938, -0.2927700218845599, 0.23904572186687872, 0.11952286093343936, -0.23904572186687875, 0.11952286093343936, 0.23904572186687872, -0.2927700218845599, 0.11952286093343938, 0.11952286093343936, -0.2927700218845599, 0.23904572186687875, -0.2927700218845599, 0.23904572186687872]}
    - {mu0: 0, rank: 3, ndensity: 1, num_ms_combs: 19, mus: [0, 0, 1], ns: [1, 2, 1], ls: [2, 2, 2], ms_combs: [-2, 0, 2, -2, 1, 1, -2, 2, 0, -1, -1, 2, -1, 0, 1, -1, 1, 0, -1, 2, -1, 0, -2, 2, 0, -1, 1, 0, 0, 0, 0, 1, -1, 0, 2, -2, 1, -2, 1, 1, -1, 0, 1, 0, -1, 1, 1, -2, 2, -2, 0, 2, -1, -1, 2, 0, -2], ctildes: [0.23904572186687872, -0.2927700218845599, 0.23904572186687875, -0.2927700218845599, 0.11952286093343936, 0.11952286093343938, -0.2927700218845599, 0.23904572186687872, 0.11952286093343936, -0.23904572186687875, 0.11952286093343936, 0.23904572186687872, -0.2927700218845599, 0.11952286093343938, 0.11952286093343936, -0.2927700218845599, 0.23904572186687875, -0.2927700218845599, 0.23904572186687872]}
    - {mu0: 0, rank: 3, ndensity: 1, num_ms_combs: 19, mus: [0, 0, 0], ns: [1, 2, 2], ls: [2, 2, 2], ms_combs: [-2, 0, 2, -2, 1, 1, -2, 2, 0, -1, -1, 2, -1, 0, 1, -1, 1, 0, -1, 2, -1, 0, -2, 2, 0, -1, 1, 0, 0, 0, 0, 1, -1, 0, 2, -2, 1, -2, 1, 1, -1, 0, 1, 0, -1, 1, 1, -2, 2, -2, 0, 2, -1, -1, 2, 0, -2], ctildes: [0.23904572186687872, -0.2927700218845599, 0.23904572186687875, -0.2927700218845599, 0.11952286093343936, 0.11952286093343938, -0.2927700218845599, 0.23904572186687872, 0.11952286093343936, -0.23904572186687875, 0.11952286093343936, 0.23904572186687872, -0.2927700218845599, 0.11952286093343938, 0.11952286093343936, -0.2927700218845599, 0.23904572186687875, -0.2927700218845599, 0.23904572186687872]}
    - {mu0: 0, rank: 3, ndensity: 1, num_ms_combs: 19, mus: [0, 0, 1], ns: [1, 2, 2], ls: [2, 2, 2], ms_combs: [-2, 0, 2, -2, 1, 1, -2, 2, 0, -1, -1, 2, -1, 0, 1, -1, 1, 0, -1, 2, -1, 0, -2, 2, 0, -1, 1, 0, 0, 0, 0, 1, -1, 0, 2, -2, 1, -2, 1, 1, -1, 0, 1, 0, -1, 1, 1, -2, 2, -2, 0, 2, -1, -1, 2, 0, -2], ctildes: [0.23904572186687872, -0.2927700218845599, 0.23904572186687875, -0.2927700218845599, 0.11952286093343936, 0.11952286093343938, -0.2927700218845599, 0.23904572186687872, 0.11952286093343936, -0.23904572186687875, 0.11952286093343936, 0.23904572186687872, -0.2927700218845599, 0.11952286093343938, 0.11952286093343936, -0.2927700218845599, 0.23904572186687875, -0.2927700218845599, 0.23904572186687872]}
    - {mu0: 0, rank: 3, ndensity: 1, num_ms_combs: 19, mus: [0, 1, 1], ns: [1, 2, 2], ls: [2, 2, 2], ms_combs: [-2, 0, 2, -2, 1, 1, -2, 2, 0, -1, -1, 2, -1, 0, 1, -1, 1, 0, -1, 2, -1, 0, -2, 2, 0, -1, 1, 0, 0, 0, 0, 1, -1, 0, 2, -2, 1, -2, 1, 1, -1, 0, 1, 0, -1, 1, 1, -2, 2, -2, 0, 2, -1, -1, 2, 0, -2], ctildes: [0.23904572186687872, -0.2927700218845599, 0.23904572186687875, -0.2927700218845599, 0.11952286093343936, 0.11952286093343938, -0.2927700218845599, 0.23904572186687872, 0.11952286093343936, -0.23904572186687875, 0.11952286093343936, 0.23904572186687872, -0.2927700218845599, 0.11952286093343938, 0.11952286093343936, -0.2927700218845599, 0.23904572186687875, -0.2927700218845599, 0.23904572186687872]}
    - {mu0: 0, rank: 3, ndensity: 1, num_ms_combs: 19, mus: [1, 1, 1], ns: [1, 2, 2], ls: [2, 2, 2], ms_combs: [-2, 0, 2, -2, 1, 1, -2, 2, 0, -1, -1, 2, -1, 0, 1, -1, 1, 0, -1, 2, -1, 0, -2, 2, 0, -1, 1, 0, 0, 0, 0, 1, -1, 0, 2, -2, 1, -2, 1, 1, -1, 0, 1, 0, -1, 1, 1, -2, 2, -2, 0, 2, -1, -1, 2, 0, -2], ctildes: [0.23904572186687872, -0.2927700218845599, 0.23904572186687875, -0.2927700218845599, 0.11952286093343936, 0.11952286093343938, -0.2927700218845599, 0.23904572186687872, 0.11952286093343936, -0.23904572186687875, 0.11952286093343936, 0.23904572186687872, -0.2927700218845599, 0.11952286093343938, 0.11952286093343936, -0.2927700218845599, 0.23904572186687875, -0.2927700218845599, 0.23904572186687872]}
    - {mu0: 0, rank: 3, ndensity: 1, num_ms_combs: 19, mus: [0, 1, 1], ns: [2, 1, 1], ls: [2, 2, 2], ms_combs: [-2, 0, 2, -2, 1, 1, -2, 2, 0, -1, -1, 2, -1, 0, 1, -1, 1, 0, -1, 2, -1, 0, -2, 2, 0, -1, 1, 0, 0, 0, 0, 1, -1, 0, 2, -2, 1, -2, 1, 1, -1, 0, 1, 0, -1, 1, 1, -2, 2, -2, 0, 2, -1, -1, 2, 0, -2], ctildes: [0.23904572186687872, -0.2927700218845599, 0.23904572186687875, -0.2927700218845599, 0.11952286093343936, 0.11952286093343938, -0.2927700218845599, 0.23904572186687872, 0.11952286093343936, -0.23904572186687875, 0.11952286093343936, 0.23904572186687872, -0.2927700218845599, 0.11952286093343938, 0.11952286093343936, -0.2927700218845599, 0.23904572186687875, -0.2927700218845599, 0.23904572186687872]}
    - {mu0: 0, rank: 3, ndensity: 1, num_ms_combs: 19, mus: [0, 1, 1], ns: [2, 1, 2], ls: [2, 2, 2], ms_combs: [-2, 0, 2, -2, 1, 1, -2, 2, 0, -1, -1, 2, -1, 0, 1, -1, 1, 0, -1, 2, -1, 0, -2, 2, 0, -1, 1, 0, 0, 0, 0, 1, -1, 0, 2, -2, 1, -2, 1, 1, -1, 0, 1, 0, -1, 1, 1, -2, 2, -2, 0, 2, -1, -1, 2, 0, -2], ctildes: [0.23904572186687872, -0.2927700218845599, 0.23904572186687875, -0.2927700218845599, 0.11952286093343936, 0.11952286093343938, -0.2927700218845599, 0.23904572186687872, 0.11952286093343936, -0.23904572186687875, 0.11952286093343936, 0.23904572186687872, -0.2927700218845599, 0.11952286093343938, 0.11952286093343936, -0.2927700218845599, 0.23904572186687875, -0.2927700218845599, 0.23904572186687872]}
    - {mu0: 0, rank: 3, ndensity: 1, num_ms_combs: 19, mus: [0, 0, 1], ns: [2, 2, 1], ls: [2, 2, 2], ms_combs: [-2, 0, 2, -2, 1, 1, -2, 2, 0, -1, -1, 2, -1, 0, 1, -1, 1, 0, -1, 2, -1, 0, -2, 2, 0, -1, 1, 0, 0, 0, 0, 1, -1, 0, 2, -2, 1, -2, 1, 1, -1, 0, 1, 0, -1, 1, 1, -2, 2, -2, 0, 2, -1, -1, 2, 0, -2], ctildes: [0.23904572186687872, -0.2927700218845599, 0.23904572186687875, -0.2927700218845599, 0.11952286093343936, 0.11952286093343938, -0.2927700218845599, 0.23904572186687872, 0.11952286093343936, -0.23904572186687875, 0.11952286093343936, 0.23904572186687872, -0.2927700218845599, 0.11952286093343938, 0.11952286093343936, -0.2927700218845599, 0.23904572186687875, -0.2927700218845599, 0.23904572186687872]}
    - {mu0: 0, rank: 3, ndensity: 1, num_ms_combs: 19, mus: [0, 0, 0], ns: [2, 2, 2], ls: [2, 2, 2], ms_combs: [-2, 0, 2, -2, 1, 1, -2, 2, 0, -1, -1, 2, -1, 0, 1, -1, 1, 0, -1, 2, -1, 0, -2, 2, 0, -1, 1, 0, 0, 0, 0, 1, -1, 0, 2, -2, 1, -2, 1, 1, -1, 0, 1, 0, -1, 1, 1, -2, 2, -2, 0, 2, -1, -1, 2, 0, -2], ctildes: [0.23904572186687872, -0.2927700218845599, 0.23904572186687875, -0.2927700218845599, 0.11952286093343936, 0.11952286093343938, -0.2927700218845599, 0.23904572186687872, 0.11952286093343936, -0.23904572186687875, 0.11952286093343936, 0.23904572186687872, -0.2927700218845599, 0.11952286093343938, 0.11952286093343936, -0.2927700218845599, 0.23904572186687875, -0.2927700218845599, 0.23904572186687872]}
    - {mu0: 0, rank: 3, ndensity: 1, num_ms_combs: 19, mus: [0, 0, 1], ns: [2, 2, 2], ls: [2, 2, 2], ms_combs: [-2, 0, 2, -2, 1, 1, -2, 2, 0, -1, -1, 2, -1, 0, 1, -1, 1, 0, -1, 2, -1, 0, -2, 2, 0, -1, 1, 0, 0, 0, 0, 1, -1, 0, 2, -2, 1, -2, 1, 1, -1, 0, 1, 0, -1, 1, 1, -2, 2, -2, 0, 2, -1, -1, 2, 0, -2], ctildes: [0.23904572186687872, -0.2927700218845599, 0.23904572186687875, -0.2927700218845599, 0.11952286093343936, 0.11952286093343938, -0.2927700218845599, 0.23904572186687872, 0.11952286093343936, -0.23904572186687875, 0.11952286093343936, 0.23904572186687872, -0.2927700218845599, 0.11952286093343938, 0.11952286093343936, -0.2927700218845599, 0.23904572186687875, -0.2927700218845599, 0.23904572186687872]}
    - {mu0: 0, rank: 3, ndensity: 1, num_ms_combs: 19, mus: [0, 1, 1], ns: [2, 2, 2], ls: [2, 2, 2], ms_combs: [-2, 0, 2, -2, 1, 1, -2, 2, 0, -1, -1, 2, -1, 0, 1, -1, 1, 0, -1, 2, -1, 0, -2, 2, 0, -1, 1, 0, 0, 0, 0, 1, -1, 0, 2, -2, 1, -2, 1, 1, -1, 0, 1, 0, -1, 1, 1, -2, 2, -2, 0, 2, -1, -1, 2, 0, -2], ctildes: [0.23904572186687872, -0.2927700218845599, 0.23904572186687875, -0.2927700218845599, 0.11952286093343936, 0.11952286093343938, -0.2927700218845599, 0.23904572186687872, 0.11952286093343936, -0.23904572186687875, 0.11952286093343936, 0.23904572186687872, -0.2927700218845599, 0.11952286093343938, 0.11952286093343936, -0.2927700218845599, 0.23904572186687875, -0.2927700218845599, 0.23904572186687872]}
    - {mu0: 0, rank: 3, ndensity: 1, num_ms_combs: 19, mus: [1, 1, 1], ns: [2, 2, 2], ls: [2, 2, 2], ms_combs: [-2, 0, 2, -2, 1, 1, -2, 2, 0, -1, -1, 2, -1, 0, 1, -1, 1, 0, -1, 2, -1, 0, -2, 2, 0, -1, 1, 0, 0, 0, 0, 1, -1, 0, 2, -2, 1, -2, 1, 1, -1, 0, 1, 0, -1, 1, 1, -2, 2, -2, 0, 2, -1, -1, 2, 0, -2], ctildes: [0.23904572186687872, -0.2927700218845599, 0.23904572186687875, -0.2927700218845599, 0.11952286093343936, 0.11952286093343938, -0.2927700218845599, 0.23904572186687872, 0.11952286093343936, -0.23904572186687875, 0.11952286093343936, 0.23904572186687872, -0.2927700218845599, 0.11952286093343938, 0.11952286093343936, -0.2927700218845599, 0.23904572186687875, -0.2927700218845599, 0.23904572186687872]}
    - {mu0: 0, rank: 4, ndensity: 1, num_ms_combs: 1, mus: [0, 0, 0, 0], ns: [1, 1, 1, 1], ls: [0, 0, 0, 0], ms_combs: [0, 0, 0, 0], ctildes: [1.0]}
    - {mu0: 0, rank: 4, ndensity: 1, num_ms_combs: 1, mus: [0, 0, 0, 1], ns: [1, 1, 1, 1], ls: [0, 0, 0, 0], ms_combs: [0, 0, 0, 0], ctildes: [1.0]}
    - {mu0: 0, rank: 4, ndensity: 1, num_ms_combs: 1, mus: [0, 0, 1, 1], ns: [1, 1, 1, 1], ls: [0, 0, 0, 0], ms_combs: [0, 0, 0, 0], ctildes: [1.0]}
    - {mu0: 0, rank: 4, ndensity: 1, num_ms_combs: 1, mus: [1, 1, 1, 0], ns: [1, 1, 1, 1], ls: [0, 0, 0, 0], ms_combs: [0, 0, 0, 0], ctildes: [1.0]}
    - {mu0: 0, rank: 4, ndensity: 1, num_ms_combs: 1, mus: [1, 1, 1, 1], ns: [1, 1, 1, 1], ls: [0, 0, 0, 0], ms_combs: [0, 0, 0, 0], ctildes: [1.0]}
    - {mu0: 0, rank: 4, ndensity: 1, num_ms_combs: 3, mus: [0, 0, 0, 0], ns: [1, 1, 1, 1], ls: [0, 0, 1, 1], ms_combs: [0, 0, -1, 1, 0, 0, 0, 0, 0, 0, 1, -1], ctildes: [0.5773502691896257, -0.5773502691896257, 0.5773502691896257]}
    - {mu0: 0, rank: 4, ndensity: 1, num_ms_combs: 3, mus: [0, 0, 0, 1], ns: [1, 1, 1, 1], ls: [0, 0, 1, 1], ms_combs: [0, 0, -1, 1, 0, 0, 0, 0, 0, 0, 1, -1], ctildes: [0.5773502691896257, -0.5773502691896257, 0.5773502691896257]}
    - {mu0: 0, rank: 4, ndensity: 1, num_ms_combs: 3, mus: [0, 0, 1, 1], ns: [1, 1, 1, 1], ls: [0, 0, 1, 1], ms_combs: [0, 0, -1, 1, 0, 0, 0, 0, 0, 0, 1, -1], ctildes: [0.5773502691896257, -0.5773502691896257, 0.5773502691896257]}
    - {mu0: 0, rank: 4, ndensity: 1, num_ms_combs: 3, mus: [0, 1, 0, 0], ns: [1, 1, 1, 1], ls: [0, 0, 1, 1], ms_combs: [0, 0, -1, 1, 0, 0, 0, 0, 0, 0, 1, -1], ctildes: [0.5773502691896257, -0.5773502691896257, 0.5773502691896257]}
    - {mu0: 0, rank: 4, ndensity: 1, num_ms_combs: 3, mus: [0, 1, 0, 1], ns: [1, 1, 1, 1], ls: [0, 0, 1, 1], ms_combs: [0, 0, -1, 1, 0, 0, 0, 0, 0, 0, 1, -1], ctildes: [0.5773502691896257, -0.5773502691896257, 0.5773502691896257]}
    - {mu0: 0, rank: 4, ndensity: 1, num_ms_combs: 3, mus: [1, 0, 1, 1], ns: [1, 1, 1, 1], ls: [0, 0, 1, 1], ms_combs: [0, 0, -1, 1, 0, 0, 0, 0, 0, 0, 1, -1], ctildes: [0.5773502691896257, -0.5773502691896257, 0.5773502691896257]}
    - {mu0: 0, rank: 4, ndensity: 1, num_ms_combs: 3, mus: [1, 1, 0, 0], ns: [1, 1, 1, 1], ls: [0, 0, 1, 1], ms_combs: [0, 0, -1, 1, 0, 0, 0, 0, 0, 0, 1, -1], ctildes: [0.5773502691896257, -0.5773502691896257, 0.5773502691896257]}
    - {mu0: 0, rank: 4, ndensity: 1, num_ms_combs: 3, mus: [1, 1, 1, 0], ns: [1, 1, 1, 1], ls: [0, 0, 1, 1], ms_combs: [0, 0, -1, 1, 0, 0, 0, 0, 0, 0, 1, -1], ctildes: [0.5773502691896257, -0.5773502691896257, 0.5773502691896257]}
    - {mu0: 0, rank: 4, ndensity: 1, num_ms_combs: 3, mus: [1, 1, 1, 1], ns: [1, 1, 1, 1], ls: [0, 0, 1, 1], ms_combs: [0, 0, -1, 1, 0, 0, 0, 0, 0, 0, 1, -1], ctildes: [0.5773502691896257, -0.5773502691896257, 0.5773502691896257]}
    - {mu0: 0, rank: 4, ndensity: 1, num_ms_combs: 19, mus: [0, 0, 0, 0], ns: [1, 1, 1, 1], ls: [1, 1, 1, 1], ms_combs: [-1, -1, 1, 1, -1, 0, 0, 1, -1, 0, 1, 0, -1, 1, -1, 1, -1, 1, 0, 0, -1, 1, 1, -1, 0, -1, 0, 1, 0, -1, 1, 0, 0, 0, -1, 1, 0, 0, 0, 0, 0, 0, 1, -1, 0, 1, -1, 0, 0, 1, 0, -1, 1, -1, -1, 1, 1, -1, 0, 0, 1, -1, 1, -1, 1, 0, -1, 0, 1, 0, 0, -1, 1, 1, -1, -1], ctildes: [0.0, 0.0, 0.0, 0.3333333333333333, -0.3333333333333333, 0.3333333333333333, 0.0, 0.0, -0.3333333333333333, 0.3333333333333333, -0.3333333333333333, 0.0, 0.0, 0.3333333333333333, -0.3333333333333333, 0.3333333333333333, 0.0, 0.0, 0.0]}
    - {mu0: 0, rank: 4, ndensity: 1, num_ms_combs: 19, mus: [0, 0, 0, 1], ns: [1, 1, 1, 1], ls: [1, 1, 1, 1], ms_combs: [-1, -1, 1, 1, -1, 0, 0, 1, -1, 0, 1, 0, -1, 1, -1, 1, -1, 1, 0, 0, -1, 1, 1, -1, 0, -1, 0, 1, 0, -1, 1, 0, 0, 0, -1, 1, 0, 0, 0, 0, 0, 0, 1, -1, 0, 1, -1, 0, 0, 1, 0, -1, 1, -1, -1, 1, 1, -1, 0, 0, 1, -1, 1, -1, 1, 0, -1, 0, 1, 0, 0, -1, 1, 1, -1, -1], ctildes: [0.0, 0.0, 0.0, 0.3333333333333333, -0.3333333333333333, 0.3333333333333333, 0.0, 0.0, -0.3333333333333333, 0.3333333333333333, -0.3333333333333333, 0.0, 0.0, 0.3333333333333333, -0.3333333333333333, 0.3333333333333333, 0.0, 0.0, 0.0]}
    - {mu0: 0, rank: 4, ndensity: 1, num_ms_combs: 19, mus: [0, 0, 1, 1], ns: [1, 1, 1, 1], ls: [1, 1, 1, 1], ms_combs: [-1, -1, 1, 1, -1, 0, 0, 1, -1, 0, 1, 0, -1, 1, -1, 1, -1, 1, 0, 0, -1, 1, 1, -1, 0, -1, 0, 1, 0, -1, 1, 0, 0, 0, -1, 1, 0, 0, 0, 0, 0, 0, 1, -1, 0, 1, -1, 0, 0, 1, 0, -1, 1, -1, -1, 1, 1, -1, 0, 0, 1, -1, 1, -1, 1, 0, -1, 0, 1, 0, 0, -1, 1, 1, -1, -1], ctildes: [0.0, 0.0, 0.0, 0.3333333333333333, -0.3333333333333333, 0.3333333333333333, 0.0, 0.0, -0.3333333333333333, 0.3333333333333333, -0.3333333333333333, 0.0, 0.0, 0.3333333333333333, -0.3333333333333333, 0.3333333333333333, 0.0, 0.0, 0.0]}
    - {mu0: 0, rank: 4, ndensity: 1, num_ms_combs: 19, mus: [0, 1, 0, 1], ns: [1, 1, 1, 1], ls: [1, 1, 1, 1], ms_combs: [-1, -1, 1, 1, -1, 0, 0, 1, -1, 0, 1, 0, -1, 1, -1, 1, -1, 1, 0, 0, -1, 1, 1, -1, 0, -1, 0, 1, 0, -1, 1, 0, 0, 0, -1, 1, 0, 0, 0, 0, 0, 0, 1, -1, 0, 1, -1, 0, 0, 1, 0, -1, 1, -1, -1, 1, 1, -1, 0, 0, 1, -1, 1, -1, 1, 0, -1, 0, 1, 0, 0, -1, 1, 1, -1, -1], ctildes: [0.0, 0.0, 0.0, 0.3333333333333333, -0.3333333333333333, 0.3333333333333333, 0.0, 0.0, -0.3333333333333333, 0.3333333333333333, -0.3333333333333333, 0.0, 0.0, 0.3333333333333333, -0.3333333333333333, 0.3333333333333333, 0.0, 0.0, 0.0]}
    - {mu0: 0, rank: 4, ndensity: 1, num_ms_combs: 19, mus: [1, 1, 1, 0], ns: [1, 1, 1, 1], ls: [1, 1, 1, 1], ms_combs: [-1, -1, 1, 1, -1, 0, 0, 1, -1, 0, 1, 0, -1, 1, -1, 1, -1, 1, 0, 0, -1, 1, 1, -1, 0, -1, 0, 1, 0, -1, 1, 0, 0, 0, -1, 1, 0, 0, 0, 0, 0, 0, 1, -1, 0, 1, -1, 0, 0, 1, 0, -1, 1, -1, -1, 1, 1, -1, 0, 0, 1, -1, 1, -1, 1, 0, -1, 0, 1, 0, 0, -1, 1, 1, -1, -1], ctildes: [0.0, 0.0, 0.0, 0.3333333333333333, -0.3333333333333333, 0.3333333333333333, 0.0, 0.0, -0.3333333333333333, 0.3333333333333333, -0.3333333333333333, 0.0, 0.0, 0.3333333333333333, -0.3333333333333333, 0.3333333333333333, 0.0, 0.0, 0.0]}
    - {mu0: 0, rank: 4, ndensity: 1, num_ms_combs: 19, mus: [1, 1, 1, 1], ns: [1, 1, 1, 1], ls: [1, 1, 1, 1], ms_combs: [-1, -1, 1, 1, -1, 0, 0, 1, -1, 0, 1, 0, -1, 1, -1, 1, -1, 1, 0, 0, -1, 1, 1, -1, 0, -1, 0, 1, 0, -1, 1, 0, 0, 0, -1, 1, 0, 0, 0, 0, 0, 0, 1, -1, 0, 1, -1, 0, 0, 1, 0, -1, 1, -1, -1, 1, 1, -1, 0, 0, 1, -1, 1, -1, 1, 0, -1, 0, 1, 0, 0, -1, 1, 1, -1, -1], ctildes: [0.0, 0.0, 0.0, 0.3333333333333333, -0.3333333333333333, 0.3333333333333333, 0.0, 0.0, -0.3333333333333333, 0.3333333333333333, -0.3333333333333333, 0.0, 0.0, 0.3333333333333333, -0.3333333333333333, 0.3333333333333333, 0.0, 0.0, 0.0]}
  1:
    - {mu0: 1, rank: 1, ndensity: 1, num_ms_combs: 1, mus: [0], ns: [1], ls: [0], ms_combs: [0], ctildes: [1.0]}
    - {mu0: 1, rank: 1, ndensity: 1, num_ms_combs: 1, mus: [1], ns: [1], ls: [0], ms_combs: [0], ctildes: [1.0]}
    - {mu0: 1, rank: 1, ndensity: 1, num_ms_combs: 1, mus: [0], ns: [2], ls: [0], ms_combs: [0], ctildes: [1.0]}
    - {mu0: 1, rank: 1, ndensity: 1, num_ms_combs: 1, mus: [1], ns: [2], ls: [0], ms_combs: [0], ctildes: [1.0]}
    - {mu0: 1, rank: 1, ndensity: 1, num_ms_combs: 1, mus: [0], ns: [3], ls: [0], ms_combs: [0], ctildes: [1.0]}
    - {mu0: 1, rank: 1, ndensity: 1, num_ms_combs: 1, mus: [1], ns: [3], ls: [0], ms_combs: [0], ctildes: [1.0]}
    - {mu0: 1, rank: 1, ndensity: 1, num_ms_combs: 1, mus: [0], ns: [4], ls: [0], ms_combs: [0], ctildes: [1.0]}
    - {mu0: 1, rank: 1, ndensity: 1, num_ms_combs: 1, mus: [1], ns: [4], ls: [0], ms_combs: [0], ctildes: [1.0]}
    - {mu0: 1, rank: 1, ndensity: 1, num_ms_combs: 1, mus: [0], ns: [5], ls: [0], ms_combs: [0], ctildes: [1.0]}
    - {mu0: 1, rank: 1, ndensity: 1, num_ms_combs: 1, mus: [1], ns: [5], ls: [0], ms_combs: [0], ctildes: [1.0]}
    - {mu0: 1, rank: 1, ndensity: 1, num_ms_combs: 1, mus: [0], ns: [6], ls: [0], ms_combs: [0], ctildes: [1.0]}
    - {mu0: 1, rank: 1, ndensity: 1, num_ms_combs: 1, mus: [1], ns: [6], ls: [0], ms_combs: [0], ctildes: [1.0]}
    - {mu0: 1, rank: 1, ndensity: 1, num_ms_combs: 1, mus: [0], ns: [7], ls: [0], ms_combs: [0], ctildes: [1.0]}
    - {mu0: 1, rank: 1, ndensity: 1, num_ms_combs: 1, mus: [1], ns: [7], ls: [0], ms_combs: [0], ctildes: [1.0]}
    - {mu0: 1, rank: 1, ndensity: 1, num_ms_combs: 1, mus: [0], ns: [8], ls: [0], ms_combs: [0], ctildes: [1.0]}
    - {mu0: 1, rank: 1, ndensity: 1, num_ms_combs: 1, mus: [1], ns: [8], ls: [0], ms_combs: [0], ctildes: [1.0]}
    - {mu0: 1, rank: 2, ndensity: 1, num_ms_combs: 1, mus: [0, 0], ns: [1, 1], ls: [0, 0], ms_combs: [0, 0], ctildes: [1.0]}
    - {mu0: 1, rank: 2, ndensity: 1, num_ms_combs: 1, mus: [0, 1], ns: [1, 1], ls: [0, 0], ms_combs: [0, 0], ctildes: [1.0]}
    - {mu0: 1, rank: 2, ndensity: 1, num_ms_combs: 1, mus: [1, 1], ns: [1, 1], ls: [0, 0], ms_combs: [0, 0], ctildes: [1.0]}
    - {mu0: 1, rank: 2, ndensity: 1, num_ms_combs: 1, mus: [0, 0], ns: [1, 2], ls: [0, 0], ms_combs: [0, 0], ctildes: [1.0]}
    - {mu0: 1, rank: 2, ndensity: 1, num_ms_combs: 1, mus: [0, 1], ns: [1, 2], ls: [0, 0], ms_combs: [0, 0], ctildes: [1.0]}
    - {mu0: 1, rank: 2, ndensity: 1, num_ms_combs: 1, mus: [1, 1], ns: [1, 2], ls: [0, 0], ms_combs: [0, 0], ctildes: [1.0]}
    - {mu0: 1, rank: 2, ndensity: 1, num_ms_combs: 1, mus: [0, 1], ns: [2, 1], ls: [0, 0], ms_combs: [0, 0], ctildes: [1.0]}
    - {mu0: 1, rank: 2, ndensity: 1, num_ms_combs: 1, mus: [0, 0], ns: [2, 2], ls: [0, 0], ms_combs: [0, 0], ctildes: [1.0]}
    - {mu0: 1, rank: 2, ndensity: 1, num_ms_combs: 1, mus: [0, 1], ns: [2, 2], ls: [0, 0], ms_combs: [0, 0], ctildes: [1.0]}
    - {mu0: 1, rank: 2, ndensity: 1, num_ms_combs: 1, mus: [1, 1], ns: [2, 2], ls: [0, 0], ms_combs: [0, 0], ctildes: [1.0]}
    - {mu0: 1, rank: 2, ndensity: 1, num_ms_combs: 3, mus: [0, 0], ns: [1, 1], ls: [1, 1], ms_combs: [-1, 1, 0, 0, 1, -1], ctildes: [0.5773502691896257, -0.5773502691896257, 0.5773502691896257]}
    - {mu0: 1, rank: 2, ndensity: 1, num_ms_combs: 3, mus: [0, 1], ns: [1, 1], ls: [1, 1], ms_combs: [-1, 1, 0, 0, 1, -1], ctildes: [0.5773502691896257, -0.5773502691896257, 0.5773502691896257]}
    - {mu0: 1, rank: 2, ndensity: 1, num_ms_combs: 3, mus: [1, 1], ns: [1, 1], ls: [1, 1], ms_combs: [-1, 1, 0, 0, 1, -1], ctildes: [0.5773502691896257, -0.5773502691896257, 0.5773502691896257]}
    - {mu0: 1, rank: 2, ndensity: 1, num_ms_combs: 3, mus: [0, 0], ns: [1, 2], ls: [1, 1], ms_combs: [-1, 1, 0, 0, 1, -1], ctildes: [0.5773502691896257, -0.5773502691896257, 0.5773502691896257]}
    - {mu0: 1, rank: 2, ndensity: 1, num_ms_combs: 3, mus: [0, 1], ns: [1, 2], ls: [1, 1], ms_combs: [-1, 1, 0, 0, 1, -1], ctildes: [0.5773502691896257, -0.5773502691896257, 0.5773502691896257]}
    - {mu0: 1, rank: 2, ndensity: 1, num_ms_combs: 3, mus: [1, 1], ns: [1, 2], ls: [1, 1], ms_combs: [-1, 1, 0, 0, 1, -1], ctildes: [0.5773502691896257, -0.5773502691896257, 0.5773502691896257]}
    - {mu0: 1, rank: 2, ndensity: 1, num_ms_combs: 3, mus: [0, 1], ns: [2, 1], ls: [1, 1], ms_combs: [-1, 1, 0, 0, 1, -1], ctildes: [0.5773502691896257, -0.5773502691896257, 0.5773502691896257]}
    - {mu0: 1, rank: 2, ndensity: 1, num_ms_combs: 3, mus: [0, 0], ns: [2, 2], ls: [1, 1], ms_combs: [-1, 1, 0, 0, 1, -1], ctildes: [0.5773502691896257, -0.5773502691896257, 0.5773502691896257]}
    - {mu0: 1, rank: 2, ndensity: 1, num_ms_combs: 3, mus: [0, 1], ns: [2, 2], ls: [1, 1], ms_combs: [-1, 1, 0, 0, 1, -1], ctildes: [0.5773502691896257, -0.5773502691896257, 0.5773502691896257]}
    - {mu0: 1, rank: 2, ndensity: 1, num_ms_combs: 3, mus: [1, 1], ns: [2, 2], ls: [1, 1], ms_combs: [-1, 1, 0, 0, 1, -1], ctildes: [0.5773502691896257, -0.5773502691896257, 0.5773502691896257]}
    - {mu0: 1, rank: 2, ndensity: 1, num_ms_combs: 5, mus: [0, 0], ns: [1, 1], ls: [2, 2], ms_combs: [-2, 2, -1, 1, 0, 0, 1, -1, 2, -2], ctildes: [0.4472135954999579, -0.4472135954999579, 0.447213595499958, -0.4472135954999579, 0.4472135954999579]}
    - {mu0: 1, rank: 2, ndensity: 1, num_ms_combs: 5, mus: [0, 1], ns: [1, 1], ls: [2, 2], ms_combs: [-2, 2, -1, 1, 0, 0, 1, -1, 2, -2], ctildes: [0.4472135954999579, -0.4472135954999579, 0.447213595499958, -0.4472135954999579, 0.4472135954999579]}
    - {mu0: 1, rank: 2, ndensity: 1, num_ms_combs: 5, mus: [1, 1], ns: [1, 1], ls: [2, 2], ms_combs: [-2, 2, -1, 1, 0, 0, 1, -1, 2, -2], ctildes: [0.4472135954999579, -0.4472135954999579, 0.447213595499958, -0.4472135954999579, 0.4472135954999579]}
    - {mu0: 1, rank: 2, ndensity: 1, num_ms_combs: 5, mus: [0, 0], ns: [1, 2], ls: [2, 2], ms_combs: [-2, 2, -1, 1, 0, 0, 1, -1, 2, -2], ctildes: [0.4472135954999579, -0.4472135954999579, 0.447213595499958, -0.4472135954999579, 0.4472135954999579]}
    - {mu0: 1, rank: 2, ndensity: 1, num_ms_combs: 5, mus: [0, 1], ns: [1, 2], ls: [2, 2], ms_combs: [-2, 2, -1, 1, 0, 0, 1, -1, 2, -2], ctildes: [0.4472135954999579, -0.4472135954999579, 0.447213595499958, -0.4472135954999579, 0.4472135954999579]}
    - {mu0: 1, rank: 2, ndensity: 1, num_ms_combs: 5, mus: [1, 1], ns: [1, 2], ls: [2, 2], ms_combs: [-2, 2, -1, 1, 0, 0, 1, -1, 2, -2], ctildes: [0.4472135954999579, -0.4472135954999579, 0.447213595499958, -0.4472135954999579, 0.4472135954999579]}
    - {mu0: 1, rank: 2, ndensity: 1, num_ms_combs: 5, mus: [0, 1], ns: [2, 1], ls: [2, 2], ms_combs: [-2, 2, -1, 1, 0, 0, 1, -1, 2, -2], ctildes: [0.4472135954999579, -0.4472135954999579, 0.447213595499958, -0.4472135954999579, 0.4472135954999579]}
    - {mu0: 1, rank: 2, ndensity: 1, num_ms_combs: 5, mus: [0, 0], ns: [2, 2], ls: [2, 2], ms_combs: [-2, 2, -1, 1, 0, 0, 1, -1, 2, -2], ctildes: [0.4472135954999579, -0.4472135954999579, 0.447213595499958, -0.4472135954999579, 0.4472135954999579]}
    - {mu0: 1, rank: 2, ndensity: 1, num_ms_combs: 5, mus: [0, 1], ns: [2, 2], ls: [2, 2], ms_combs: [-2, 2, -1, 1, 0, 0, 1, -1, 2, -2], ctildes: [0.4472135954999579, -0.4472135954999579, 0.447213595499958, -0.4472135954999579, 0.4472135954999579]}
    - {mu0: 1, rank: 2, ndensity: 1, num_ms_combs: 5, mus: [1, 1], ns: [2, 2], ls: [2, 2], ms_combs: [-2, 2, -1, 1, 0, 0, 1, -1, 2, -2], ctildes: [0.4472135954999579, -0.4472135954999579, 0.447213595499958, -0.4472135954999579, 0.4472135954999579]}
    - {mu0: 1, rank: 3, ndensity: 1, num_ms_combs: 1, mus: [0, 0, 0], ns: [1, 1, 1], ls: [0, 0, 0], ms_combs: [0, 0, 0], ctildes: [1.0]}
    - {mu0: 1, rank: 3, ndensity: 1, num_ms_combs: 1, mus: [0, 0, 1], ns: [1, 1, 1], ls: [0, 0, 0], ms_combs: [0, 0, 0], ctildes: [1.0]}
    - {mu0: 1, rank: 3, ndensity: 1, num_ms_combs: 1, mus: [0, 1, 1], ns: [1, 1, 1], ls: [0, 0, 0], ms_combs: [0, 0, 0], ctildes: [1.0]}
    - {mu0: 1, rank: 3, ndensity: 1, num_ms_combs: 1, mus: [1, 1, 1], ns: [1, 1, 1], ls: [0, 0, 0], ms_combs: [0, 0, 0], ctildes: [1.0]}
    - {mu0: 1, rank: 3, ndensity: 1, num_ms_combs: 1, mus: [0, 0, 0], ns: [1, 1, 2], ls: [0, 0, 0], ms_combs: [0, 0, 0], ctildes: [1.0]}
    - {mu0: 1, rank: 3, ndensity: 1, num_ms_combs: 1, mus: [0, 0, 1], ns: [1, 1, 2], ls: [0, 0, 0], ms_combs: [0, 0, 0], ctildes: [1.0]}
    - {mu0: 1, rank: 3, ndensity: 1, num_ms_combs: 1, mus: [0, 1, 1], ns: [1, 1, 2], ls: [0, 0, 0], ms_combs: [0, 0, 0], ctildes: [1.0]}
    - {mu0: 1, rank: 3, ndensity: 1, num_ms_combs: 1, mus: [1, 1, 1], ns: [1, 1, 2], ls: [0, 0, 0], ms_combs: [0, 0, 0], ctildes: [1.0]}
    - {mu0: 1, rank: 3, ndensity: 1, num_ms_combs: 1, mus: [0, 0, 1], ns: [1, 2, 1], ls: [0, 0, 0], ms_combs: [0, 0, 0], ctildes: [1.0]}
    - {mu0: 1, rank: 3, ndensity: 1, num_ms_combs: 1, mus: [0, 0, 0], ns: [1, 2, 2], ls: [0, 0, 0], ms_combs: [0, 0, 0], ctildes: [1.0]}
    - {mu0: 1, rank: 3, ndensity: 1, num_ms_combs: 1, mus: [0, 0, 1], ns: [1, 2, 2], ls: [0, 0, 0], ms_combs: [0, 0, 0], ctildes: [1.0]}
    - {mu0: 1, rank: 3, ndensity: 1, num_ms_combs: 1, mus: [0, 1, 1], ns: [1, 2, 2], ls: [0, 0, 0], ms_combs: [0, 0, 0], ctildes: [1.0]}
    - {mu0: 1, rank: 3, ndensity: 1, num_ms_combs: 1, mus: [1, 1, 1], ns: [1, 2, 2], ls: [0, 0, 0], ms_combs: [0, 0, 0], ctildes: [1.0]}
    - {mu0: 1, rank: 3, ndensity: 1, num_ms_combs: 1, mus: [0, 1, 1], ns: [2, 1, 1], ls: [0, 0, 0], ms_combs: [0, 0, 0], ctildes: [1.0]}
    - {mu0: 1, rank: 3, ndensity: 1, num_ms_combs: 1, mus: [0, 1, 1], ns: [2, 1, 2], ls: [0, 0, 0], ms_combs: [0, 0, 0], ctildes: [1.0]}
    - {mu0: 1, rank: 3, ndensity: 1, num_ms_combs: 1, mus: [0, 0, 1], ns: [2, 2, 1], ls: [0, 0, 0], ms_combs: [0, 0, 0], ctildes: [1.0]}
    - {mu0: 1, rank: 3, ndensity: 1, num_ms_combs: 1, mus: [0, 0, 0], ns: [2, 2, 2], ls: [0, 0, 0], ms_combs: [0, 0, 0], ctildes: [1.0]}
    - {mu0: 1, rank: 3, ndensity: 1, num_ms_combs: 1, mus: [0, 0, 1], ns: [2, 2, 2], ls: [0, 0, 0], ms_combs: [0, 0, 0], ctildes: [1.0]}
    - {mu0: 1, rank: 3, ndensity: 1, num_ms_combs: 1, mus: [0, 1, 1], ns: [2, 2, 2], ls: [0, 0, 0], ms_combs: [0, 0, 0], ctildes: [1.0]}
    - {mu0: 1, rank: 3, ndensity: 1, num_ms_combs: 1, mus: [1, 1, 1], ns: [2, 2, 2], ls: [0, 0, 0], ms_combs: [0, 0, 0], ctildes: [1.0]}
    - {mu0: 1, rank: 3, ndensity: 1, num_ms_combs: 3, mus: [0, 0, 0], ns: [1, 1, 1], ls: [0, 1, 1], ms_combs: [0, -1, 1, 0, 0, 0, 0, 1, -1], ctildes: [0.5773502691896257, -0.5773502691896257, 0.5773502691896257]}
    - {mu0: 1, rank: 3, ndensity: 1, num_ms_combs: 3, mus: [0, 0, 1], ns: [1, 1, 1], ls: [0, 1, 1], ms_combs: [0, -1, 1, 0, 0, 0, 0, 1, -1], ctildes: [0.5773502691896257, -0.5773502691896257, 0.5773502691896257]}
    - {mu0: 1, rank: 3, ndensity: 1, num_ms_combs: 3, mus: [0, 1, 1], ns: [1, 1, 1], ls: [0, 1, 1], ms_combs: [0, -1, 1, 0, 0, 0, 0, 1, -1], ctildes: [0.5773502691896257, -0.5773502691896257, 0.5773502691896257]}
    - {mu0: 1, rank: 3, ndensity: 1, num_ms_combs: 3, mus: [1, 1, 1], ns: [1, 1, 1], ls: [0, 1, 1], ms_combs: [0, -1, 1, 0, 0, 0, 0, 1, -1], ctildes: [0.5773502691896257, -0.5773502691896257, 0.5773502691896257]}
    - {mu0: 1, rank: 3, ndensity: 1, num_ms_combs: 3, mus: [0, 0, 0], ns: [1, 1, 2], ls: [0, 1, 1], ms_combs: [0, -1, 1, 0, 0, 0, 0, 1, -1], ctildes: [0.5773502691896257, -0.5773502691896257, 0.5773502691896257]}
    - {mu0: 1, rank: 3, ndensity: 1, num_ms_combs: 3, mus: [0, 0, 1], ns: [1, 1, 2], ls: [0, 1, 1], ms_combs: [0, -1, 1, 0, 0, 0, 0, 1, -1], ctildes: [0.5773502691896257, -0.5773502691896257, 0.5773502691896257]}
    - {mu0: 1, rank: 3, ndensity: 1, num_ms_combs: 3, mus: [0, 1, 1], ns: [1, 1, 2], ls: [0, 1, 1], ms_combs: [0, -1, 1, 0, 0, 0, 0, 1, -1], ctildes: [0.5773502691896257, -0.5773502691896257, 0.5773502691896257]}
    - {mu0: 1, rank: 3, ndensity: 1, num_ms_combs: 3, mus: [1, 1, 1], ns: [1, 1, 2], ls: [0, 1, 1], ms_combs: [0, -1, 1, 0, 0, 0, 0, 1, -1], ctildes: [0.5773502691896257, -0.5773502691896257, 0.5773502691896257]}
    - {mu0: 1, rank: 3, ndensity: 1, num_ms_combs: 3, mus: [0, 0, 1], ns: [1, 2, 1], ls: [0, 1, 1], ms_combs: [0, -1, 1, 0, 0, 0, 0, 1, -1], ctildes: [0.5773502691896257, -0.5773502691896257, 0.5773502691896257]}
    - {mu0: 1, rank: 3, ndensity: 1, num_ms_combs: 3, mus: [0, 0, 0], ns: [1, 2, 2], ls: [0, 1, 1], ms_combs: [0, -1, 1, 0, 0, 0, 0, 1, -1], ctildes: [0.5773502691896257, -0.5773502691896257, 0.5773502691896257]}
    - {mu0: 1, rank: 3, ndensity: 1, num_ms_combs: 3, mus: [0, 0, 1], ns: [1, 2, 2], ls: [0, 1, 1], ms_combs: [0, -1, 1, 0, 0, 0, 0, 1, -1], ctildes: [0.5773502691896257, -0.5773502691896257, 0.5773502691896257]}
    - {mu0: 1, rank: 3, ndensity: 1, num_ms_combs: 3, mus: [0, 1, 1], ns: [1, 2, 2], ls: [0, 1, 1], ms_combs: [0, -1, 1, 0, 0, 0, 0, 1, -1], ctildes: [0.5773502691896257, -0.5773502691896257, 0.5773502691896257]}
    - {mu0: 1, rank: 3, ndensity: 1, num_ms_combs: 3, mus: [1, 1, 1], ns: [1, 2, 2], ls: [0, 1, 1], ms_combs: [0, -1, 1, 0, 0, 0, 0, 1, -1], ctildes: [0.5773502691896257, -0.5773502691896257, 0.5773502691896257]}
    - {mu0: 1, rank: 3, ndensity: 1, num_ms_combs: 3, mus: [0, 0, 0], ns: [2, 1, 1], ls: [0, 1, 1], ms_combs: [0, -1, 1, 0, 0, 0, 0, 1, -1], ctildes: [0.5773502691896257, -0.5773502691896257, 0.5773502691896257]}
    - {mu0: 1, rank: 3, ndensity: 1, num_ms_combs: 3, mus: [0, 0, 1], ns: [2, 1, 1], ls: [0, 1, 1], ms_combs: [0, -1, 1, 0, 0, 0, 0, 1, -1], ctildes: [0.5773502691896257, -0.5773502691896257, 0.5773502691896257]}
    - {mu0: 1, rank: 3, ndensity: 1, num_ms_combs: 3, mus: [0, 1, 1], ns: [2, 1, 1], ls: [0, 1, 1], ms_combs: [0, -1, 1, 0, 0, 0, 0, 1, -1], ctildes: [0.5773502691896257, -0.5773502691896257, 0.5773502691896257]}
    - {mu0: 1, rank: 3, ndensity: 1, num_ms_combs: 3, mus: [1, 1, 1], ns: [2, 1, 1], ls: [0, 1, 1], ms_combs: [0, -1, 1, 0, 0, 0, 0, 1, -1], ctildes: [0.5773502691896257, -0.5773502691896257, 0.5773502691896257]}
    - {mu0: 1, rank: 3, ndensity: 1, num_ms_combs: 3, mus: [0, 0, 0], ns: [2, 1, 2], ls: [0, 1, 1], ms_combs: [0, -1, 1, 0, 0, 0, 0, 1, -1], ctildes: [0.5773502691896257, -0.5773502691896257, 0.5773502691896257]}
    - {mu0: 1, rank: 3, ndensity: 1, num_ms_combs: 3, mus: [0, 0, 1], ns: [2, 1, 2], ls: [0, 1, 1], ms_combs: [0, -1, 1, 0, 0, 0, 0, 1, -1], ctildes: [0.5773502691896257, -0.5773502691896257, 0.5773502691896257]}
    - {mu0: 1, rank: 3, ndensity: 1, num_ms_combs: 3, mus: [0, 1, 1], ns: [2, 1, 2], ls: [0, 1, 1], ms_combs: [0, -1, 1, 0, 0, 0, 0, 1, -1], ctildes: [0.5773502691896257, -0.5773502691896257, 0.5773502691896257]}
    - {mu0: 1, rank: 3, ndensity: 1, num_ms_combs: 3, mus: [1, 1, 1], ns: [2, 1, 2], ls: [0, 1, 1], ms_combs: [0, -1, 1, 0, 0, 0, 0, 1, -1], ctildes: [0.5773502691896257, -0.5773502691896257, 0.5773502691896257]}
    - {mu0: 1, rank: 3, ndensity: 1, num_ms_combs: 3, mus: [0, 0, 1], ns: [2, 2, 1], ls: [0, 1, 1], ms_combs: [0, -1, 1, 0, 0, 0, 0, 1, -1], ctildes: [0.5773502691896257, -0.5773502691896257, 0.5773502691896257]}
    - {mu0: 1, rank: 3, ndensity: 1, num_ms_combs: 3, mus: [0, 0, 0], ns: [2, 2, 2], ls: [0, 1, 1], ms_combs: [0, -1, 1, 0, 0, 0, 0, 1, -1], ctildes: [0.5773502691896257, -0.5773502691896257, 0.5773502691896257]}
    - {mu0: 1, rank: 3, ndensity: 1, num_ms_combs: 3, mus: [0, 0, 1], ns: [2, 2, 2], ls: [0, 1, 1], ms_combs: [0, -1, 1, 0, 0, 0, 0, 1, -1], ctildes: [0.5773502691896257, -0.5773502691896257, 0.5773502691896257]}
    - {mu0: 1, rank: 3, ndensity: 1, num_ms_combs: 3, mus: [0, 1, 1], ns: [2, 2, 2], ls: [0, 1, 1], ms_combs: [0, -1, 1, 0, 0, 0, 0, 1, -1], ctildes: [0.5773502691896257, -0.5773502691896257, 0.5773502691896257]}
    - {mu0: 1, rank: 3, ndensity: 1, num_ms_combs: 3, mus: [1, 1, 1], ns: [2, 2, 2], ls: [0, 1, 1], ms_combs: [0, -1, 1, 0, 0, 0, 0, 1, -1], ctildes: [0.5773502691896257, -0.5773502691896257, 0.5773502691896257]}
    - {mu0: 1, rank: 3, ndensity: 1, num_ms_combs: 5, mus: [0, 0, 0], ns: [1, 1, 1], ls: [0, 2, 2], ms_combs: [0, -2, 2, 0, -1, 1, 0, 0, 0, 0, 1, -1, 0, 2, -2], ctildes: [0.4472135954999579, -0.4472135954999579, 0.447213595499958, -0.4472135954999579, 0.4472135954999579]}
    - {mu0: 1, rank: 3, ndensity: 1, num_ms_combs: 5, mus: [0, 0, 1], ns: [1, 1, 1], ls: [0, 2, 2], ms_combs: [0, -2, 2, 0, -1, 1, 0, 0, 0, 0, 1, -1, 0, 2, -2], ctildes: [0.4472135954999579, -0.4472135954999579, 0.447213595499958, -0.4472135954999579, 0.4472135954999579]}
    - {mu0: 1, rank: 3, ndensity: 1, num_ms_combs: 5, mus: [0, 1, 1], ns: [1, 1, 1], ls: [0, 2, 2], ms_combs: [0, -2, 2, 0, -1, 1, 0, 0, 0, 0, 1, -1, 0, 2, -2], ctildes: [0.4472135954999579, -0.4472135954999579, 0.447213595499958, -0.4472135954999579, 0.4472135954999579]}
    - {mu0: 1, rank: 3, ndensity: 1, num_ms_combs: 5, mus: [1, 1, 1], ns: [1, 1, 1], ls: [0, 2, 2], ms_combs: [0, -2, 2, 0, -1, 1, 0, 0, 0, 0, 1, -1, 0, 2, -2], ctildes: [0.4472135954999579, -0.4472135954999579, 0.447213595499958, -0.4472135954999579, 0.4472135954999579]}
    - {mu0: 1, rank: 3, ndensity: 1, num_ms_combs: 5, mus: [0, 0, 0], ns: [1, 1, 2], ls: [0, 2, 2], ms_combs: [0, -2, 2, 0, -1, 1, 0, 0, 0, 0, 1, -1, 0, 2, -2], ctildes: [0.4472135954999579, -0.4472135954999579, 0.447213595499958, -0.4472135954999579, 0.4472135954999579]}
    - {mu0: 1, rank: 3, ndensity: 1, num_ms_combs: 5, mus: [0, 0, 1], ns: [1, 1, 2], ls: [0, 2, 2], ms_combs: [0, -2, 2, 0, -1, 1, 0, 0, 0, 0, 1, -1, 0, 2, -2], ctildes: [0.4472135954999579, -0.4472135954999579, 0.447213595499958, -0.4472135954999579, 0.4472135954999579]}
    - {mu0: 1, rank: 3, ndensity: 1, num_ms_combs: 5, mus: [0, 1, 1], ns: [1, 1, 2], ls: [0, 2, 2], ms_combs: [0, -2, 2, 0, -1, 1, 0, 0, 0, 0, 1, -1, 0, 2, -2], ctildes: [0.4472135954999579, -0.4472135954999579, 0.447213595499958, -0.4472135954999579, 0.4472135954999579]}
    - {mu0: 1, rank: 3, ndensity: 1, num_ms_combs: 5, mus: [1, 1, 1], ns: [1, 1, 2], ls: [0, 2, 2], ms_combs: [0, -2, 2, 0, -1, 1, 0, 0, 0, 0, 1, -1, 0, 2, -2], ctildes: [0.4472135954999579, -0.4472135954999579, 0.447213595499958, -0.4472135954999579, 0.4472135954999579]}
    - {mu0: 1, rank: 3, ndensity: 1, num_ms_combs: 5, mus: [0, 0, 1], ns: [1, 2, 1], ls: [0, 2, 2], ms_combs: [0, -2, 2, 0, -1, 1, 0, 0, 0, 0, 1, -1, 0, 2, -2], ctildes: [0.4472135954999579, -0.4472135954999579, 0.447213595499958, -0.4472135954999579, 0.4472135954999579]}
    - {mu0: 1, rank: 3, ndensity: 1, num_ms_combs: 5, mus: [0, 0, 0], ns: [1, 2, 2], ls: [0, 2, 2], ms_combs: [0, -2, 2, 0, -1, 1, 0, 0, 0, 0, 1, -1, 0, 2, -2], ctildes: [0.4472135954999579, -0.4472135954999579, 0.447213595499958, -0.4472135954999579, 0.4472135954999579]}
    - {mu0: 1, rank: 3, ndensity: 1, num_ms_combs: 5, mus: [0, 0, 1], ns: [1, 2, 2], ls: [0, 2, 2], ms_combs: [0, -2, 2, 0, -1, 1, 0, 0, 0, 0, 1, -1, 0, 2, -2], ctildes: [0.4472135954999579, -0.4472135954999579, 0.447213595499958, -0.4472135954999579, 0.4472135954999579]}
    - {mu0: 1, rank: 3, ndensity: 1, num_ms_combs: 5, mus: [0, 1, 1], ns: [1, 2, 2], ls: [0, 2, 2], ms_combs: [0, -2, 2, 0, -1, 1, 0, 0, 0, 0, 1, -1, 0, 2, -2], ctildes: [0.4472135954999579, -0.4472135954999579, 0.447213595499958, -0.4472135954999579, 0.4472135954999579]}
    - {mu0: 1, rank: 3, ndensity: 1, num_ms_combs: 5, mus: [1, 1, 1], ns: [1, 2, 2], ls: [0, 2, 2], ms_combs: [0, -2, 2, 0, -1, 1, 0, 0, 0, 0, 1, -1, 0, 2, -2], ctildes: [0.4472135954999579, -0.4472135954999579, 0.447213595499958, -0.4472135954999579, 0.4472135954999579]}
    - {mu0: 1, rank: 3, ndensity: 1, num_ms_combs: 5, mus: [0, 0, 0], ns: [2, 1, 1], ls: [0, 2, 2], ms_combs: [0, -2, 2, 0, -1, 1, 0, 0, 0, 0, 1, -1, 0, 2, -2], ctildes: [0.4472135954999579, -0.4472135954999579, 0.447213595499958, -0.4472135954999579, 0.4472135954999579]}
    - {mu0: 1, rank: 3, ndensity: 1, num_ms_combs: 5, mus: [0, 0, 1], ns: [2, 1, 1], ls: [0, 2, 2], ms_combs: [0, -2, 2, 0, -1, 1, 0, 0, 0, 0, 1, -1, 0, 2, -2], ctildes: [0.4472135954999579, -0.4472135954999579, 0.447213595499958, -0.4472135954999579, 0.4472135954999579]}
    - {mu0: 1, rank: 3, ndensity: 1, num_ms_combs: 5, mus: [0, 1, 1], ns: [2, 1, 1], ls: [0, 2, 2], ms_combs: [0, -2, 2, 0, -1, 1, 0, 0, 0, 0, 1, -1, 0, 2, -2], ctildes: [0.4472135954999579, -0.4472135954999579, 0.447213595499958, -0.4472135954999579, 0.4472135954999579]}
    - {mu0: 1, rank: 3, ndensity: 1, num_ms_combs: 5, mus: [1, 1, 1], ns: [2, 1, 1], ls: [0, 2, 2], ms_combs: [0, -2, 2, 0, -1, 1, 0, 0, 0, 0, 1, -1, 0, 2, -2], ctildes: [0.4472135954999579, -0.4472135954999579, 0.447213595499958, -0.4472135954999579, 0.4472135954999579]}
    - {mu0: 1, rank: 3, ndensity: 1, num_ms_combs: 5, mus: [0, 0, 0], ns: [2, 1, 2], ls: [0, 2, 2], ms_combs: [0, -2, 2, 0, -1, 1, 0, 0, 0, 0, 1, -1, 0, 2, -2], ctildes: [0.4472135954999579, -0.4472135954999579, 0.447213595499958, -0.4472135954999579, 0.4472135954999579]}
    - {mu0: 1, rank: 3, ndensity: 1, num_ms_combs: 5, mus: [0, 0, 1], ns: [2, 1, 2], ls: [0, 2, 2], ms_combs: [0, -2, 2, 0, -1, 1, 0, 0, 0, 0, 1, -1, 0, 2, -2], ctildes: [0.4472135954999579, -0.4472135954999579, 0.447213595499958, -0.4472135954999579, 0.4472135954999579]}
    - {mu0: 1, rank: 3, ndensity: 1, num_ms_combs: 5, mus: [0, 1, 1], ns: [2, 1, 2], ls: [0, 2, 2], ms_combs: [0, -2, 2, 0, -1, 1, 0, 0, 0, 0, 1, -1, 0, 2, -2], ctildes: [0.4472135954999579, -0.4472135954999579, 0.447213595499958, -0.4472135954999579, 0.4472135954999579]}
    - {mu0: 1, rank: 3, ndensity: 1, num_ms_combs: 5, mus: [1, 1, 1], ns: [2, 1, 2], ls: [0, 2, 2], ms_combs: [0, -2, 2, 0, -1, 1, 0, 0, 0, 0, 1, -1, 0, 2, -2], ctildes: [0.4472135954999579, -0.4472135954999579, 0.447213595499958, -0.4472135954999579, 0.4472135954999579]}
    - {mu0: 1, rank: 3, ndensity: 1, num_ms_combs: 5, mus: [0, 0, 1], ns: [2, 2, 1], ls: [0, 2, 2], ms_combs: [0, -2, 2, 0, -1, 1, 0, 0, 0, 0, 1, -1, 0, 2, -2], ctildes: [0.4472135954999579, -0.4472135954999579, 0.447213595499958, -0.4472135954999579, 0.4472135954999579]}
    - {mu0: 1, rank: 3, ndensity: 1, num_ms_combs: 5, mus: [0, 0, 0], ns: [2, 2, 2], ls: [0, 2, 2], ms_combs: [0, -2, 2, 0, -1, 1, 0, 0, 0, 0, 1, -1, 0, 2, -2], ctildes: [0.4472135954999579, -0.4472135954999579, 0.447213595499958, -0.4472135954999579, 0.4472135954999579]}
    - {mu0: 1, rank: 3, ndensity: 1, num_ms_combs: 5, mus: [0, 0, 1], ns: [2, 2, 2], ls: [0, 2, 2], ms_combs: [0, -2, 2, 0, -1, 1, 0, 0, 0, 0, 1, -1, 0, 2, -2], ctildes: [0.4472135954999579, -0.4472135954999579, 0.447213595499958, -0.4472135954999579, 0.4472135954999579]}
    - {mu0: 1, rank: 3, ndensity: 1, num_ms_combs: 5, mus: [0, 1, 1], ns: [2, 2, 2], ls: [0, 2, 2], ms_combs: [0, -2, 2, 0, -1, 1, 0, 0, 0, 0, 1, -1, 0, 2, -2], ctildes: [0.4472135954999579, -0.4472135954999579, 0.447213595499958, -0.4472135954999579, 0.4472135954999579]}
    - {mu0: 1, rank: 3, ndensity: 1, num_ms_combs: 5, mus: [1, 1, 1], ns: [2, 2, 2], ls: [0, 2, 2], ms_combs: [0, -2, 2, 0, -1, 1, 0, 0, 0, 0, 1, -1, 0, 2, -2], ctildes: [0.4472135954999579, -0.4472135954999579, 0.447213595499958, -0.4472135954999579, 0.4472135954999579]}
    - {mu0: 1, rank: 3, ndensity: 1, num_ms_combs: 9, mus: [0, 0, 0], ns: [1, 1, 1], ls: [1, 1, 2], ms_combs: [-1, -1, 2, -1, 0, 1, -1, 1, 0, 0, -1, 1, 0, 0, 0, 0, 1, -1, 1, -1, 0, 1, 0, -1, 1, 1, -2], ctildes: [0.4472135954999579, -0.31622776601683794, 0.18257418583505539, -0.31622776601683794, 0.36514837167011077, -0.31622776601683794, 0.18257418583505539, -0.31622776601683794, 0.4472135954999579]}
    - {mu0: 1, rank: 3, ndensity: 1, num_ms_combs: 9, mus: [0, 0, 1], ns: [1, 1, 1], ls: [1, 1, 2], ms_combs: [-1, -1, 2, -1, 0, 1, -1, 1, 0, 0, -1, 1, 0, 0, 0, 0, 1, -1, 1, -1, 0, 1, 0, -1, 1, 1, -2], ctildes: [0.4472135954999579, -0.31622776601683794, 0.18257418583505539, -0.31622776601683794, 0.36514837167011077, -0.31622776601683794, 0.18257418583505539, -0.31622776601683794, 0.4472135954999579]}
    - {mu0: 1, rank: 3, ndensity: 1, num_ms_combs: 9, mus: [0, 1, 1], ns: [1, 1, 1], ls: [1, 1, 2], ms_combs: [-1, -1, 2, -1, 0, 1, -1, 1, 0, 0, -1, 1, 0, 0, 0, 0, 1, -1, 1, -1, 0, 1, 0, -1, 1, 1, -2], ctildes: [0.4472135954999579, -0.31622776601683794, 0.18257418583505539, -0.31622776601683794, 0.36514837167011077, -0.31622776601683794, 0.18257418583505539, -0.31622776601683794, 0.4472135954999579]}
    - {mu0: 1, rank: 3, ndensity: 1, num_ms_combs: 9, mus: [1, 1, 1], ns: [1, 1, 1], ls: [1, 1, 2], ms_combs: [-1, -1, 2, -1, 0, 1, -1, 1, 0, 0, -1, 1, 0, 0, 0, 0, 1, -1, 1, -1, 0, 1, 0, -1, 1, 1, -2], ctildes: [0.4472135954999579, -0.31622776601683794, 0.18257418583505539, -0.31622776601683794, 0.36514837167011077, -0.31622776601683794, 0.18257418583505539, -0.31622776601683794, 0.4472135954999579]}
    - {mu0: 1, rank: 3, ndensity: 1, num_ms_combs: 9, mus: [0, 0, 0], ns: [1, 1, 2], ls: [1, 1, 2], ms_combs: [-1, -1, 2, -1, 0, 1, -1, 1, 0, 0, -1, 1, 0, 0, 0, 0, 1, -1, 1, -1, 0, 1, 0, -1, 1, 1, -2], ctildes: [0.4472135954999579, -0.31622776601683794, 0.18257418583505539, -0.31622776601683794, 0.36514837167011077, -0.31622776601683794, 0.18257418583505539, -0.31622776601683794, 0.4472135954999579]}
    - {mu0: 1, rank: 3, ndensity: 1, num_ms_combs: 9, mus: [0, 0, 1], ns: [1, 1, 2], ls: [1, 1, 2], ms_combs: [-1, -1, 2, -1, 0, 1, -1, 1, 0, 0, -1, 1, 0, 0, 0, 0, 1, -1, 1, -1, 0, 1, 0, -1, 1, 1, -2], ctildes: [0.4472135954999579, -0.31622776601683794, 0.18257418583505539, -0.31622776601683794, 0.36514837167011077, -0.31622776601683794, 0.18257418583505539, -0.31622776601683794, 0.4472135954999579]}
    - {mu0: 1, rank: 3, ndensity: 1, num_ms_combs: 9, mus: [0, 1, 1], ns: [1, 1, 2], ls: [1, 1, 2], ms_combs: [-1, -1, 2, -1, 0, 1, -1, 1, 0, 0, -1, 1, 0, 0, 0, 0, 1, -1, 1, -1, 0, 1, 0, -1, 1, 1, -2], ctildes: [0.4472135954999579, -0.31622776601683794, 0.18257418583505539, -0.31622776601683794, 0.36514837167011077, -0.31622776601683794, 0.18257418583505539, -0.31622776601683794, 0.4472135954999579]}
    - {mu0: 1, rank: 3, ndensity: 1, num_ms_combs: 9, mus: [1, 1, 1], ns: [1, 1, 2], ls: [1, 1, 2], ms_combs: [-1, -1, 2, -1, 0, 1, -1, 1, 0, 0, -1, 1, 0, 0, 0, 0, 1, -1, 1, -1, 0, 1, 0, -1, 1, 1, -2], ctildes: [0.4472135954999579, -0.31622776601683794, 0.18257418583505539, -0.31622776601683794, 0.36514837167011077, -0.31622776601683794, 0.18257418583505539, -0.31622776601683794, 0.4472135954999579]}
    - {mu0: 1, rank: 3, ndensity: 1, num_ms_combs: 9, mus: [0, 0, 0], ns: [1, 2, 1], ls: [1, 1, 2], ms_combs: [-1, -1, 2, -1, 0, 1, -1, 1, 0, 0, -1, 1, 0, 0, 0, 0, 1, -1, 1, -1, 0, 1, 0, -1, 1, 1, -2], ctildes: [0.4472135954999579, -0.31622776601683794, 0.18257418583505539, -0.31622776601683794, 0.36514837167011077, -0.31622776601683794, 0.18257418583505539, -0.31622776601683794, 0.4472135954999579]}
    - {mu0: 1, rank: 3, ndensity: 1, num_ms_combs: 9, mus: [0, 0, 1], ns: [1, 2, 1], ls: [1, 1, 2], ms_combs: [-1, -1, 2, -1, 0, 1, -1, 1, 0, 0, -1, 1, 0, 0, 0, 0, 1, -1, 1, -1, 0, 1, 0, -1, 1, 1, -2], ctildes: [0.4472135954999579, -0.31622776601683794, 0.18257418583505539, -0.31622776601683794, 0.36514837167011077, -0.31622776601683794, 0.18257418583505539, -0.31622776601683794, 0.4472135954999579]}
    - {mu0: 1, rank: 3, ndensity: 1, num_ms_combs: 9, mus: [0, 1, 1], ns: [1, 2, 1], ls: [1, 1, 2], ms_combs: [-1, -1, 2, -1, 0, 1, -1, 1, 0, 0, -1, 1, 0, 0, 0, 0, 1, -1, 1, -1, 0, 1, 0, -1, 1, 1, -2], ctildes: [0.4472135954999579, -0.31622776601683794, 0.18257418583505539, -0.31622776601683794, 0.36514837167011077, -0.31622776601683794, 0.18257418583505539, -0.31622776601683794, 0.4472135954999579]}
    - {mu0: 1, rank: 3, ndensity: 1, num_ms_combs: 9, mus: [1, 1, 1], ns: [1, 2, 1], ls: [1, 1, 2], ms_combs: [-1, -1, 2, -1, 0, 1, -1, 1, 0, 0, -1, 1, 0, 0, 0, 0, 1, -1, 1, -1, 0, 1, 0, -1, 1, 1, -2], ctildes: [0.4472135954999579, -0.31622776601683794, 0.18257418583505539, -0.31622776601683794, 0.36514837167011077, -0.31622776601683794, 0.18257418583505539, -0.31622776601683794, 0.4472135954999579]}
    - {mu0: 1, rank: 3, ndensity: 1, num_ms_combs: 9, mus: [0, 0, 0], ns: [1, 2, 2], ls: [1, 1, 2], ms_combs: [-1, -1, 2, -1, 0, 1, -1, 1, 0, 0, -1, 1, 0, 0, 0, 0, 1, -1, 1, -1, 0, 1, 0, -1, 1, 1, -2], ctildes: [0.4472135954999579, -0.31622776601683794, 0.18257418583505539, -0.31622776601683794, 0.36514837167011077, -0.31622776601683794, 0.18257418583505539, -0.31622776601683794, 0.4472135954999579]}
    - {mu0: 1, rank: 3, ndensity: 1, num_ms_combs: 9, mus: [0, 0, 1], ns: [1, 2, 2], ls: [1, 1, 2], ms_combs: [-1, -1, 2, -1, 0, 1, -1, 1, 0, 0, -1, 1, 0, 0, 0, 0, 1, -1, 1, -1, 0, 1, 0, -1, 1, 1, -2], ctildes: [0.4472135954999579, -0.31622776601683794, 0.18257418583505539, -0.31622776601683794, 0.36514837167011077, -0.31622776601683794, 0.18257418583505539, -0.31622776601683794, 0.4472135954999579]}
    - {mu0: 1, rank: 3, ndensity: 1, num_ms_combs: 9, mus: [0, 1, 1], ns: [1, 2, 2], ls: [1, 1, 2], ms_combs: [-1, -1, 2, -1, 0, 1, -1, 1, 0, 0, -1, 1, 0, 0, 0, 0, 1, -1, 1, -1, 0, 1, 0, -1, 1, 1, -2], ctildes: [0.4472135954999579, -0.31622776601683794, 0.18257418583505539, -0.31622776601683794, 0.36514837167011077, -0.31622776601683794, 0.18257418583505539, -0.31622776601683794, 0.4472135954999579]}
    - {mu0: 1, rank: 3, ndensity: 1, num_ms_combs: 9, mus: [1, 1, 1], ns: [1, 2, 2], ls: [1, 1, 2], ms_combs: [-1, -1, 2, -1, 0, 1, -1, 1, 0, 0, -1, 1, 0, 0, 0, 0, 1, -1, 1, -1, 0, 1, 0, -1, 1, 1, -2], ctildes: [0.4472135954999579, -0.31622776601683794, 0.18257418583505539, -0.31622776601683794, 0.36514837167011077, -0.31622776601683794, 0.18257418583505539, -0.31622776601683794, 0.4472135954999579]}
    - {mu0: 1, rank: 3, ndensity: 1, num_ms_combs: 9, mus: [0, 1, 1], ns: [2, 1, 1], ls: [1, 1, 2], ms_combs: [-1, -1, 2, -1, 0, 1, -1, 1, 0, 0, -1, 1, 0, 0, 0, 0, 1, -1, 1, -1, 0, 1, 0, -1, 1, 1, -2], ctildes: [0.4472135954999579, -0.31622776601683794, 0.18257418583505539, -0.31622776601683794, 0.36514837167011077, -0.31622776601683794, 0.18257418583505539, -0.31622776601683794, 0.4472135954999579]}
    - {mu0: 1, rank: 3, ndensity: 1, num_ms_combs: 9, mus: [0, 1, 1], ns: [2, 1, 2], ls: [1, 1, 2], ms_combs: [-1, -1, 2, -1, 0, 1, -1, 1, 0, 0, -1, 1, 0, 0, 0, 0, 1, -1, 1, -1, 0, 1, 0, -1, 1, 1, -2], ctildes: [0.4472135954999579, -0.31622776601683794, 0.18257418583505539, -0.31622776601683794, 0.36514837167011077, -0.31622776601683794, 0.18257418583505539, -0.31622776601683794, 0.4472135954999579]}
    - {mu0: 1, rank: 3, ndensity: 1, num_ms_combs: 9, mus: [0, 0, 0], ns: [2, 2, 1], ls: [1, 1, 2], ms_combs: [-1, -1, 2, -1, 0, 1, -1, 1, 0, 0, -1, 1, 0, 0, 0, 0, 1, -1, 1, -1, 0, 1, 0, -1, 1, 1, -2], ctildes: [0.4472135954999579, -0.31622776601683794, 0.18257418583505539, -0.31622776601683794, 0.36514837167011077, -0.31622776601683794, 0.18257418583505539, -0.31622776601683794, 0.4472135954999579]}
    - {mu0: 1, rank: 3, ndensity: 1, num_ms_combs: 9, mus: [0, 0, 1], ns: [2, 2, 1], ls: [1, 1, 2], ms_combs: [-1, -1, 2, -1, 0, 1, -1, 1, 0, 0, -1, 1, 0, 0, 0, 0, 1, -1, 1, -1, 0, 1, 0, -1, 1, 1, -2], ctildes: [0.4472135954999579, -0.31622776601683794, 0.18257418583505539, -0.31622776601683794, 0.36514837167011077, -0.31622776601683794, 0.18257418583505539, -0.31622776601683794, 0.4472135954999579]}
    - {mu0: 1, rank: 3, ndensity: 1, num_ms_combs: 9, mus: [0, 1, 1], ns: [2, 2, 1], ls: [1, 1, 2], ms_combs: [-1, -1, 2, -1, 0, 1, -1, 1, 0, 0, -1, 1, 0, 0, 0, 0, 1, -1, 1, -1, 0, 1, 0, -1, 1, 1, -2], ctildes: [0.4472135954999579, -0.31622776601683794, 0.18257418583505539, -0.31622776601683794, 0.36514837167011077, -0.31622776601683794, 0.18257418583505539, -0.31622776601683794, 0.4472135954999579]}
    - {mu0: 1, rank: 3, ndensity: 1, num_ms_combs: 9, mus: [1, 1, 1], ns: [2, 2, 1], ls: [1, 1, 2], ms_combs: [-1, -1, 2, -1, 0, 1, -1, 1, 0, 0, -1, 1, 0, 0, 0, 0, 1, -1, 1, -1, 0, 1, 0, -1, 1, 1, -2], ctildes: [0.4472135954999579, -0.31622776601683794, 0.18257418583505539, -0.31622776601683794, 0.36514837167011077, -0.31622776601683794, 0.18257418583505539, -0.31622776601683794, 0.4472135954999579]}
    - {mu0: 1, rank: 3, ndensity: 1, num_ms_combs: 9, mus: [0, 0, 0], ns: [2, 2, 2], ls: [1, 1, 2], ms_combs: [-1, -1, 2, -1, 0, 1, -1, 1, 0, 0, -1, 1, 0, 0, 0, 0, 1, -1, 1, -1, 0, 1, 0, -1, 1, 1, -2], ctildes: [0.4472135954999579, -0.31622776601683794, 0.18257418583505539, -0.31622776601683794, 0.36514837167011077, -0.31622776601683794, 0.18257418583505539, -0.31622776601683794, 0.4472135954999579]}
    - {mu0: 1, rank: 3, ndensity: 1, num_ms_combs: 9, mus: [0, 0, 1], ns: [2, 2, 2], ls: [1, 1, 2], ms_combs: [-1, -1, 2, -1, 0, 1, -1, 1, 0, 0, -1, 1, 0, 0, 0, 0, 1, -1, 1, -1, 0, 1, 0, -1, 1, 1, -2], ctildes: [0.4472135954999579, -0.31622776601683794, 0.18257418583505539, -0.31622776601683794, 0.36514837167011077, -0.31622776601683794, 0.18257418583505539, -0.31622776601683794, 0.4472135954999579]}
    - {mu0: 1, rank: 3, ndensity: 1, num_ms_combs: 9, mus: [0, 1, 1], ns: [2, 2, 2], ls: [1, 1, 2], ms_combs: [-1, -1, 2, -1, 0, 1, -1, 1, 0, 0, -1, 1, 0, 0, 0, 0, 1, -1, 1, -1, 0, 1, 0, -1, 1, 1, -2], ctildes: [0.4472135954999579, -0.31622776601683794, 0.18257418583505539, -0.31622776601683794, 0.36514837167011077, -0.31622776601683794, 0.18257418583505539, -0.31622776601683794, 0.4472135954999579]}
    - {mu0: 1, rank: 3, ndensity: 1, num_ms_combs: 9, mus: [1, 1, 1], ns: [2, 2, 2], ls: [1, 1, 2], ms_combs: [-1, -1, 2, -1, 0, 1, -1, 1, 0, 0, -1, 1, 0, 0, 0, 0, 1, -1, 1, -1, 0, 1, 0, -1, 1, 1, -2], ctildes: [0.4472135954999579, -0.31622776601683794, 0.18257418583505539, -0.31622776601683794, 0.36514837167011077, -0.31622776601683794, 0.18257418583505539, -0.31622776601683794, 0.4472135954999579]}
    - {mu0: 1, rank: 3, ndensity: 1, num_ms_combs: 19, mus: [0, 0, 0], ns: [1, 1, 1], ls: [2, 2, 2], ms_combs: [-2, 0, 2, -2, 1, 1, -2, 2, 0, -1, -1, 2, -1, 0, 1, -1, 1, 0, -1, 2, -1, 0, -2, 2, 0, -1, 1, 0, 0, 0, 0, 1, -1, 0, 2, -2, 1, -2, 1, 1, -1, 0, 1, 0, -1, 1, 1, -2, 2, -2, 0, 2, -1, -1, 2, 0, -2], ctildes: [0.23904572186687872, -0.2927700218845599, 0.23904572186687875, -0.2927700218845599, 0.11952286093343936, 0.11952286093343938, -0.2927700218845599, 0.23904572186687872, 0.11952286093343936, -0.23904572186687875, 0.11952286093343936, 0.23904572186687872, -0.2927700218845599, 0.11952286093343938, 0.11952286093343936, -0.2927700218845599, 0.23904572186687875, -0.2927700218845599, 0.23904572186687872]}
    - {mu0: 1, rank: 3, ndensity: 1, num_ms_combs: 19, mus: [0, 0, 1], ns: [1, 1, 1], ls: [2, 2, 2], ms_combs: [-2, 0, 2, -2, 1, 1, -2, 2, 0, -1, -1, 2, -1, 0, 1, -1, 1, 0, -1, 2, -1, 0, -2, 2, 0, -1, 1, 0, 0, 0, 0, 1, -1, 0, 2, -2, 1, -2, 1, 1, -1, 0, 1, 0, -1, 1, 1, -2, 2, -2, 0, 2, -1, -1, 2, 0, -2], ctildes: [0.23904572186687872, -0.2927700218845599, 0.23904572186687875, -0.2927700218845599, 0.11952286093343936, 0.11952286093343938, -0.2927700218845599, 0.23904572186687872, 0.11952286093343936, -0.23904572186687875, 0.11952286093343936, 0.23904572186687872, -0.2927700218845599, 0.11952286093343938, 0.11952286093343936, -0.2927700218845599, 0.23904572186687875, -0.2927700218845599, 0.23904572186687872]}
    - {mu0: 1, rank: 3, ndensity: 1, num_ms_combs: 19, mus: [0, 1, 1], ns: [1, 1, 1], ls: [2, 2, 2], ms_combs: [-2, 0, 2, -2, 1, 1, -2, 2, 0, -1, -1, 2, -1, 0, 1, -1, 1, 0, -1, 2, -1, 0, -2, 2, 0, -1, 1, 0, 0, 0, 0, 1, -1, 0, 2, -2, 1, -2, 1, 1, -1, 0, 1, 0, -1, 1, 1, -2, 2, -2, 0, 2, -1, -1, 2, 0, -2], ctildes: [0.23904572186687872, -0.2927700218845599, 0.23904572186687875, -0.2927700218845599, 0.11952286093343936, 0.11952286093343938, -0.2927700218845599, 0.23904572186687872, 0.11952286093343936, -0.23904572186687875, 0.11952286093343936, 0.23904572186687872, -0.2927700218845599, 0.11952286093343938, 0.11952286093343936, -0.2927700218845599, 0.23904572186687875, -0.2927700218845599, 0.23904572186687872]}
    - {mu0: 1, rank: 3, ndensity: 1, num_ms_combs: 19, mus: [1, 1, 1], ns: [1, 1, 1], ls: [2, 2, 2], ms_combs: [-2, 0, 2, -2, 1, 1, -2, 2, 0, -1, -1, 2, -1, 0, 1, -1, 1, 0, -1, 2, -1, 0, -2, 2, 0, -1, 1, 0, 0, 0, 0, 1, -1, 0, 2, -2, 1, -2, 1, 1, -1, 0, 1, 0, -1, 1, 1, -2, 2, -2, 0, 2, -1, -1, 2, 0, -2], ctildes: [0.23904572186687872, -0.2927700218845599, 0.23904572186687875, -0.2927700218845599, 0.11952286093343936, 0.11952286093343938, -0.2927700218845599, 0.23904572186687872, 0.11952286093343936, -0.23904572186687875, 0.11952286093343936, 0.23904572186687872, -0.2927700218845599, 0.11952286093343938, 0.11952286093343936, -0.2927700218845599, 0.23904572186687875, -0.2927700218845599, 0.23904572186687872]}
    - {mu0: 1, rank: 3, ndensity: 1, num_ms_combs: 19, mus: [0, 0, 0], ns: [1, 1, 2], ls: [2, 2, 2], ms_combs: [-2, 0, 2, -2, 1, 1, -2, 2, 0, -1, -1, 2, -1, 0, 1, -1, 1, 0, -1, 2, -1, 0, -2, 2, 0, -1, 1, 0, 0, 0, 0, 1, -1, 0, 2, -2, 1, -2, 1, 1, -1, 0, 1, 0, -1, 1, 1, -2, 2, -2, 0, 2, -1, -1, 2, 0, -2], ctildes: [0.23904572186687872, -0.2927700218845599, 0.23904572186687875, -0.2927700218845599, 0.11952286093343936, 0.11952286093343938, -0.2927700218845599, 0.23904572186687872, 0.11952286093343936, -0.23904572186687875, 0.11952286093343936, 0.23904572186687872, -0.2927700218845599, 0.11952286093343938, 0.11952286093343936, -0.2927700218845599, 0.23904572186687875, -0.2927700218845599, 0.23904572186687872]}
    - {mu0: 1, rank: 3, ndensity: 1, num_ms_combs: 19, mus: [0, 0, 1], ns: [1, 1, 2], ls: [2, 2, 2], ms_combs: [-2, 0, 2, -2, 1, 1, -2, 2, 0, -1, -1, 2, -1, 0, 1, -1, 1, 0, -1, 2, -1, 0, -2, 2, 0, -1, 1, 0, 0, 0, 0, 1, -1, 0, 2, -2, 1, -2, 1, 1, -1, 0, 1, 0, -1, 1, 1, -2, 2, -2, 0, 2, -1, -1, 2, 0, -2], ctildes: [0.23904572186687872, -0.2927700218845599, 0.23904572186687875, -0.2927700218845599, 0.11952286093343936, 0.11952286093343938, -0.2927700218845599, 0.23904572186687872, 0.11952286093343936, -0.23904572186687875, 0.11952286093343936, 0.23904572186687872, -0.2927700218845599, 0.11952286093343938, 0.11952286093343936, -0.2927700218845599, 0.23904572186687875, -0.2927700218845599, 0.23904572186687872]}
    - {mu0: 1, rank: 3, ndensity: 1, num_ms_combs: 19, mus: [0, 1, 1], ns: [1, 1, 2], ls: [2, 2, 2], ms_combs: [-2, 0, 2, -2, 1, 1, -2, 2, 0, -1, -1, 2, -1, 0, 1, -1, 1, 0, -1, 2, -1, 0, -2, 2, 0, -1, 1, 0, 0, 0, 0, 1, -1, 0, 2, -2, 1, -2, 1, 1, -1, 0, 1, 0, -1, 1, 1, -2, 2, -2, 0, 2, -1, -1, 2, 0, -2], ctildes: [0.23904572186687872, -0.2927700218845599, 0.23904572186687875, -0.2927700218845599, 0.11952286093343936, 0.11952286093343938, -0.2927700218845599, 0.23904572186687872, 0.11952286093343936, -0.23904572186687875, 0.11952286093343936, 0.23904572186687872, -0.2927700218845599, 0.11952286093343938, 0.11952286093343936, -0.2927700218845599, 0.23904572186687875, -0.2927700218845599, 0.23904572186687872]}
    - {mu0: 1, rank: 3, ndensity: 1, num_ms_combs: 19, mus: [1, 1, 1], ns: [1, 1, 2], ls: [2, 2, 2], ms_combs: [-2, 0, 2, -2, 1, 1, -2, 2, 0, -1, -1, 2, -1, 0, 1, -1, 1, 0, -1, 2, -1, 0, -2, 2, 0, -1, 1, 0, 0, 0, 0, 1, -1, 0, 2, -2, 1, -2, 1, 1, -1, 0, 1, 0, -1, 1, 1, -2, 2, -2, 0, 2, -1, -1, 2, 0, -2], ctildes: [0.23904572186687872, -0.2927700218845599, 0.23904572186687875, -0.2927700218845599, 0.11952286093343936, 0.11952286093343938, -0.2927700218845599, 0.23904572186687872, 0.11952286093343936, -0.23904572186687875, 0.11952286093343936, 0.23904572186687872, -0.2927700218845599, 0.11952286093343938, 0.11952286093343936, -0.2927700218845599, 0.23904572186687875, -0.2927700218845599, 0.23904572186687872]}
    - {mu0: 1, rank: 3, ndensity: 1, num_ms_combs: 19, mus: [0, 0, 1], ns: [1, 2, 1], ls: [2, 2, 2], ms_combs: [-2, 0, 2, -2, 1, 1, -2, 2, 0, -1, -1, 2, -1, 0, 1, -1, 1, 0, -1, 2, -1, 0, -2, 2, 0, -1, 1, 0, 0, 0, 0, 1, -1, 0, 2, -2, 1, -2, 1, 1, -1, 0, 1, 0, -1, 1, 1, -2, 2, -2, 0, 2, -1, -1, 2, 0, -2], ctildes: [0.23904572186687872, -0.2927700218845599, 0.23904572186687875, -0.2927700218845599, 0.11952286093343936, 0.11952286093343938, -0.2927700218845599, 0.23904572186687872, 0.11952286093343936, -0.23904572186687875, 0.11952286093343936, 0.23904572186687872, -0.2927700218845599, 0.11952286093343938, 0.11952286093343936, -0.2927700218845599, 0.23904572186687875, -0.2927700218845599, 0.23904572186687872]}
    - {mu0: 1, rank: 3, ndensity: 1, num_ms_combs: 19, mus: [0, 0, 0], ns: [1, 2, 2], ls: [2, 2, 2], ms_combs: [-2, 0, 2, -2, 1, 1, -2, 2, 0, -1, -1, 2, -1, 0, 1, -1, 1, 0, -1, 2, -1, 0, -2, 2, 0, -1, 1, 0, 0, 0, 0, 1, -1, 0, 2, -2, 1, -2, 1, 1, -1, 0, 1, 0, -1, 1, 1, -2, 2, -2, 0, 2, -1, -1, 2, 0, -2], ctildes: [0.23904572186687872, -0.2927700218845599, 0.23904572186687875, -0.2927700218845599, 0.11952286093343936, 0.11952286093343938, -0.2927700218845599, 0.23904572186687872, 0.11952286093343936, -0.23904572186687875, 0.11952286093343936, 0.23904572186687872, -0.2927700218845599, 0.11952286093343938, 0.11952286093343936, -0.2927700218845599, 0.23904572186687875, -0.2927700218845599, 0.23904572186687872]}
    - {mu0: 1, rank: 3, ndensity: 1, num_ms_combs: 19, mus: [0, 0, 1], ns: [1, 2, 2], ls: [2, 2, 2], ms_combs: [-2, 0, 2, -2, 1, 1, -2, 2, 0, -1, -1, 2, -1, 0, 1, -1, 1, 0, -1, 2, -1, 0, -2, 2, 0, -1, 1, 0, 0, 0, 0, 1, -1, 0, 2, -2, 1, -2, 1, 1, -1, 0, 1, 0, -1, 1, 1, -2, 2, -2, 0, 2, -1, -1, 2, 0, -2], ctildes: [0.23904572186687872, -0.2927700218845599, 0.23904572186687875, -0.2927700218845599, 0.11952286093343936, 0.11952286093343938, -0.2927700218845599, 0.23904572186687872, 0.11952286093343936, -0.23904572186687875, 0.11952286093343936, 0.23904572186687872, -0.2927700218845599, 0.11952286093343938, 0.11952286093343936, -0.2927700218845599, 0.23904572186687875, -0.2927700218845599, 0.23904572186687872]}
